<?xml version="1.0"?>
<opencv_storage>
<my_svm type_id="opencv-ml-svm">
  <svm_type>C_SVC</svm_type>
  <kernel><type>LINEAR</type></kernel>
  <C>1.</C>
  <term_criteria><epsilon>2.2204460492503131e-016</epsilon>
    <iterations>100</iterations></term_criteria>
  <var_all>28800</var_all>
  <var_count>28800</var_count>
  <class_count>5</class_count>
  <class_labels type_id="opencv-matrix">
    <rows>1</rows>
    <cols>5</cols>
    <dt>i</dt>
    <data>
      1 2 3 4 5</data></class_labels>
  <sv_total>10</sv_total>
  <support_vectors>
    <_>
      0. 0. 0. 0. 0. 0. 0. 0. 0. 0. 0. 0. 0. 0. 0. 0. 0. 0. 0. 0. 0. 0.
      0. 0. 0. 0. 0. 1.38759811e-003 3.11098556e-004 9.30921757e-004 0.
      3.99543718e-003 0. 5.33255225e-004 1.78204995e-004 1.38759811e-003
      0. 0. 0. 0. 0. 0. 0. 0. 0. 3.01394565e-003 1.32046279e-003
      2.86650052e-003 0. 5.79004269e-003 0. 2.97722127e-003
      1.20178540e-003 3.01394565e-003 2.66813322e-006 2.05133547e-005
      6.13835509e-005 0. 4.69769329e-005 0. 0. 0. 2.66813322e-006
      1.87982502e-003 2.83393124e-003 4.99353744e-003 0. 4.86463495e-003
      0. 8.41279048e-004 2.81141372e-004 1.87982502e-003 0. 0. 0. 0. 0.
      0. 0. 0. 0. 0. 0. 0. 0. 0. 0. 0. 0. 0. 8.07484030e-004
      1.77090129e-004 5.29919227e-004 0. 5.93545847e-004 0.
      2.80019653e-004 9.35778808e-005 8.07484030e-004 4.53653513e-003
      9.87367937e-004 2.95457081e-003 0. 1.38677214e-003 0.
      1.11219822e-003 3.71677947e-004 4.53653513e-003 2.57868320e-003
      6.34514086e-004 1.89870154e-003 0. 2.71360320e-003 0.
      2.11065379e-003 7.05345243e-004 2.57868320e-003 5.50801354e-003
      2.79559311e-003 5.50801354e-003 0. 4.63833846e-003 0.
      5.00823604e-003 3.03294440e-003 5.50801354e-003 5.63372741e-004
      3.57990240e-004 1.07123982e-003 0. 4.27815190e-004 0.
      2.42795300e-004 8.11381178e-005 5.63372741e-004 1.74533611e-003
      2.00027926e-003 4.45829285e-003 0. 2.39859847e-003 0.
      7.44557474e-004 2.48818484e-004 1.74533611e-003 0. 0. 0. 0. 0. 0.
      0. 0. 0. 0. 0. 0. 0. 0. 0. 0. 0. 0. 3.27535113e-003
      6.02581888e-004 1.80314889e-003 0. 4.19644988e-004 0.
      4.05758678e-004 1.35597642e-004 3.27535113e-003 4.41114791e-003
      1.03771116e-003 3.10521922e-003 0. 1.73274253e-004 0.
      9.40254176e-005 3.14216777e-005 4.41114791e-003 4.89454065e-003
      1.67879555e-003 4.62026428e-003 0. 3.83853028e-003 0.
      3.62798618e-003 1.62062375e-003 4.89454065e-003 4.89454065e-003
      1.75406539e-003 4.49997745e-003 0. 2.79226084e-003 0.
      2.22971849e-003 8.51142919e-004 4.89454065e-003 9.22183739e-004
      1.10094948e-003 3.29445372e-003 0. 2.18332466e-003 0.
      5.21191221e-004 1.74173212e-004 9.22183739e-004 1.35564525e-003
      8.17919616e-004 2.44752318e-003 0. 1.42878341e-003 0.
      1.37356488e-004 4.59021685e-005 1.35564525e-003 0. 0. 0. 0. 0. 0.
      0. 0. 0. 7.09404139e-006 0. 0. 0. 0. 0. 0. 0. 7.09404139e-006
      5.00007765e-003 1.15622429e-003 3.45985452e-003 0. 7.23981721e-005
      0. 3.32028139e-005 1.10958026e-005 5.00007765e-003 5.32845641e-003
      1.22494332e-003 3.66548938e-003 0. 0. 0. 0. 0. 5.32845641e-003
      5.23935026e-003 1.47561415e-003 4.30279318e-003 0. 1.88783917e-003
      0. 1.01174519e-003 3.38107668e-004 5.23935026e-003 5.10740234e-003
      1.11893844e-003 3.30971973e-003 0. 0. 0. 0. 0. 5.10740234e-003
      1.72922423e-003 5.22664050e-004 1.56400725e-003 0. 5.09733625e-004
      0. 3.42468556e-005 1.14447066e-005 1.72922423e-003 2.48598889e-003
      3.86279193e-004 1.15589215e-003 0. 3.99981909e-005 0.
      3.53304349e-005 1.18068410e-005 2.48598889e-003 3.48885005e-005 0.
      0. 0. 0. 0. 0. 0. 3.48885005e-005 1.41673780e-004 1.24409971e-005
      3.72280665e-005 0. 0. 0. 0. 0. 1.41673780e-004 5.39427903e-003
      1.30937283e-003 3.91813414e-003 0. 0. 0. 0. 0. 5.39427903e-003
      5.39427903e-003 1.61574362e-003 4.80200397e-003 0. 0. 0. 0. 0.
      5.39427903e-003 4.93356027e-003 9.70889465e-004 2.90526799e-003 0.
      0. 0. 0. 0. 4.93356027e-003 4.83377185e-003 8.22003698e-004
      2.45974632e-003 0. 7.66095582e-006 0. 7.61400661e-005
      2.54446913e-005 4.83377185e-003 2.43671471e-003 4.06800973e-004
      1.21730100e-003 0. 1.03102633e-004 0. 6.49981157e-005
      2.17212837e-005 2.43671471e-003 3.22894845e-003 4.85425116e-004
      1.45257311e-003 0. 3.06970498e-004 0. 2.06802026e-004
      6.91097084e-005 3.22894845e-003 0. 0. 0. 0. 0. 0. 0. 0. 0.
      2.82214547e-004 7.24018537e-005 2.16653134e-004 0. 6.33685500e-004
      0. 3.36312427e-004 1.12390007e-004 2.82214547e-004 8.60829823e-005
      9.33778647e-005 2.79421161e-004 0. 3.32976866e-004 0. 0. 0.
      8.60829823e-005 3.82089196e-003 3.59823368e-003 5.95705304e-003 0.
      3.87813221e-003 0. 1.32996080e-004 4.44450743e-005 3.82089196e-003
      4.07865038e-004 1.41318364e-004 4.22876823e-004 0. 1.19004876e-003
      0. 1.21406818e-004 4.05721330e-005 4.07865038e-004 5.98656153e-003
      4.25136043e-003 5.75416768e-003 0. 6.50118385e-003 0.
      5.26096206e-004 1.75812573e-004 5.98656153e-003 4.20609067e-005
      5.46617230e-006 1.63568184e-005 0. 1.18498137e-004 0.
      5.51849189e-005 1.84418786e-005 4.20609067e-005 8.37130880e-004
      2.42995913e-004 6.97839539e-004 0. 3.53038806e-004 0.
      2.39134635e-004 7.99148038e-005 8.37130880e-004 2.19994574e-004
      1.10873581e-004 3.31775023e-004 0. 2.15322216e-004 0.
      2.05129123e-004 6.85507184e-005 2.19994574e-004 7.47681188e-004
      7.00015400e-004 2.09470792e-003 0. 1.01779622e-003 0.
      8.50209792e-004 2.84125737e-004 7.47681188e-004 2.77884584e-003
      2.02428829e-003 4.56425687e-003 0. 1.53625594e-003 0.
      7.23593766e-005 2.41812886e-005 2.77884584e-003 4.36099712e-003
      5.32378862e-003 5.95343998e-003 0. 3.58973327e-003 0.
      2.78444757e-004 9.30515162e-005 4.36099712e-003 3.29876901e-003
      1.98099902e-003 3.55477468e-003 0. 1.30921800e-003 0.
      6.99457451e-005 2.33746960e-005 3.29876901e-003 4.59037907e-003
      2.62241485e-003 3.86587298e-003 0. 7.59841001e-004 0. 0. 0.
      4.59037907e-003 2.00746348e-004 6.19300190e-005 1.85318058e-004 0.
      4.31128101e-005 0. 3.17935155e-005 1.06248626e-005 2.00746348e-004
      7.09800297e-005 2.51914425e-005 7.53824061e-005 0. 0. 0. 0. 0.
      7.09800297e-005 6.77298463e-004 8.21775408e-004 2.45906063e-003 0.
      1.53446244e-003 0. 9.14091826e-004 3.05473921e-004 6.77298463e-004
      8.38984561e-004 5.91015210e-004 1.76854024e-003 0. 1.45098777e-003
      0. 4.86715726e-004 1.62652024e-004 8.38984561e-004 4.60473914e-003
      4.63800831e-003 5.77528868e-003 0. 2.80494080e-003 0.
      2.28212128e-004 7.62646014e-005 4.60473914e-003 5.62078413e-003
      3.20059876e-003 5.60184987e-003 0. 1.46432966e-003 0.
      4.01701072e-005 1.34241564e-005 5.62078413e-003 3.41181969e-003
      1.74366659e-003 3.29137431e-003 0. 2.49274162e-004 0. 0. 0.
      3.41181969e-003 2.30126595e-003 6.99261844e-004 2.02276232e-003 0.
      1.80042880e-005 0. 0. 0. 2.30126595e-003 2.37035001e-005
      5.31277419e-006 1.58978473e-005 0. 0. 0. 0. 0. 2.37035001e-005
      4.09131815e-007 4.91379933e-006 1.47039063e-005 0. 7.18050433e-006
      0. 0. 0. 4.09131815e-007 1.28119439e-003 4.26081504e-004
      1.27499609e-003 0. 8.57206527e-004 0. 2.42949682e-004
      8.11895588e-005 1.28119439e-003 2.04731058e-003 2.90500466e-004
      8.69286014e-004 0. 0. 0. 0. 0. 2.04731058e-003 6.05541235e-003
      2.75919121e-003 5.85040962e-003 0. 4.34000511e-004 0.
      1.19244578e-005 3.98494785e-006 6.05541235e-003 6.05541235e-003
      2.31110468e-003 5.60972840e-003 0. 1.30650145e-003 0.
      4.89677070e-004 1.63641904e-004 6.05541235e-003 2.07843864e-003
      6.24036125e-004 1.73155975e-003 0. 2.48158671e-004 0.
      2.05932611e-005 6.88192358e-006 2.07843864e-003 2.49908934e-003
      9.39846330e-004 2.32954952e-003 0. 1.86073873e-003 0.
      6.78348995e-004 2.26692893e-004 2.49908934e-003 2.76267510e-005
      1.38163605e-005 4.13436646e-005 0. 2.05757897e-005 0.
      2.29687157e-005 7.67574238e-006 2.76267510e-005 2.47656659e-004
      1.28779619e-004 3.85356194e-004 0. 2.83814879e-004 0.
      8.10367565e-005 2.70810833e-005 2.47656659e-004 1.31884869e-003
      1.80354837e-004 5.39689150e-004 0. 0. 0. 0. 0. 1.31884869e-003
      1.78614922e-003 1.44884354e-004 4.33547975e-004 0. 1.65386136e-005
      0. 7.85491065e-005 2.62497597e-005 1.78614922e-003 5.09200897e-003
      1.78036268e-003 4.68169525e-003 0. 1.40711758e-003 0.
      5.46789961e-004 1.82728108e-004 5.09200897e-003 5.09200897e-003
      3.10218427e-003 5.08793863e-003 0. 2.33625108e-003 0.
      8.10179103e-004 2.70748278e-004 5.09200897e-003 2.02393881e-003
      1.03483011e-003 2.52550701e-003 0. 2.08582054e-003 0.
      7.19709613e-004 2.40514943e-004 2.02393881e-003 4.18001460e-003
      3.22900154e-003 5.09200897e-003 0. 2.09409324e-003 0.
      6.92176807e-004 2.31313912e-004 4.18001460e-003 3.54843389e-004
      2.06673387e-004 6.18443417e-004 0. 4.08019900e-004 0.
      6.86817075e-005 2.29522575e-005 3.54843389e-004 1.26878405e-003
      1.02671352e-003 3.07231070e-003 0. 1.15457538e-003 0.
      1.26823739e-004 4.23822967e-005 1.26878405e-003 9.26080160e-004
      9.62147751e-005 2.87910225e-004 0. 1.23633712e-003 0.
      2.24828793e-004 7.51340267e-005 9.26080160e-004 6.16599945e-003
      2.99578835e-003 3.46742640e-003 0. 3.45435785e-003 0.
      9.74258059e-004 3.25580768e-004 6.16599945e-003 8.29591954e-005
      6.05214746e-006 1.81102787e-005 0. 1.52512541e-004 0.
      1.02194899e-004 3.41518280e-005 8.29591954e-005 1.53217593e-003
      3.25814937e-004 8.80308973e-004 0. 4.54377208e-004 0.
      4.42844612e-004 1.47991261e-004 1.53217593e-003 0. 0. 0. 0. 0. 0.
      0. 0. 0. 0. 0. 0. 0. 0. 0. 0. 0. 0. 0. 0. 0. 0. 0. 0. 0. 0. 0. 0.
      0. 0. 0. 0. 0. 0. 0. 0. 5.14958194e-003 2.67387158e-003
      3.08498717e-003 0. 1.72333384e-003 0. 3.52712814e-004
      1.17870724e-004 5.14958194e-003 2.75110663e-003 1.99874141e-003
      3.08498717e-003 0. 3.41332925e-004 0. 0. 0. 2.75110663e-003
      9.33266536e-004 2.23026349e-004 6.40187645e-004 0. 1.56577982e-004
      0. 1.60324009e-004 5.35776016e-005 9.33266536e-004 2.35317129e-004
      7.01336539e-005 2.09866615e-004 0. 0. 0. 0. 0. 2.35317129e-004 0.
      0. 0. 0. 0. 0. 0. 0. 0. 0. 0. 0. 0. 0. 0. 0. 0. 0. 0. 0. 0. 0. 0.
      0. 0. 0. 0. 1.20516336e-006 4.99880523e-004 1.49582746e-003 0.
      2.46802205e-003 0. 0. 0. 1.20516336e-006 1.76704803e-003
      1.26814598e-003 1.93062169e-003 0. 1.49644256e-004 0. 0. 0.
      1.76704803e-003 1.27956166e-003 3.37390491e-004 1.00960035e-003 0.
      0. 0. 0. 0. 1.27956166e-003 1.00641861e-004 1.94380464e-005
      5.81660461e-005 0. 0. 0. 0. 0. 1.00641861e-004 1.36794779e-006
      2.88247713e-004 8.62543820e-004 0. 1.57602120e-003 0. 0. 0.
      1.36794779e-006 1.49902247e-004 5.16124201e-005 1.54443449e-004 0.
      3.24772933e-004 0. 0. 0. 1.49902247e-004 8.96450016e-004
      2.35215831e-003 2.53337435e-003 0. 3.46688763e-003 0.
      4.96594657e-005 1.65953224e-005 8.96450016e-004 5.19584224e-004
      1.27493346e-003 3.32461181e-003 0. 2.91046523e-003 0.
      4.50542075e-006 1.50563255e-006 5.19584224e-004 3.43649019e-003
      4.37713135e-003 6.64712721e-003 0. 6.67273998e-003 0.
      1.83670584e-003 6.13794837e-004 3.43649019e-003 1.25687453e-003
      3.39385413e-004 8.95456236e-004 0. 4.36813389e-005 0.
      5.99489658e-006 2.00339423e-006 1.25687453e-003 8.54090438e-004
      3.00462474e-004 8.99096194e-004 0. 1.29408576e-003 0.
      6.81272883e-004 2.27670011e-004 8.54090438e-004 2.37432731e-004
      3.00838175e-004 9.00219893e-004 0. 1.44102029e-003 0.
      3.12142802e-004 1.04312654e-004 2.37432731e-004 1.79838785e-003
      1.83130079e-003 3.54635739e-003 0. 3.89076048e-003 0.
      1.14248355e-003 3.81798338e-004 1.79838785e-003 4.71533654e-004
      1.69589021e-003 1.98693899e-003 0. 2.39311950e-003 0.
      2.72127887e-004 9.09403607e-005 4.71533654e-004 2.39708647e-003
      3.72713665e-003 4.55331057e-003 0. 4.57073655e-003 0.
      1.27558317e-003 4.26278246e-004 2.39708647e-003 1.89242070e-003
      1.45048578e-003 4.33774758e-003 0. 3.83695029e-003 0.
      1.55749382e-003 5.37142158e-004 1.89242070e-003 6.57166936e-004
      6.09207666e-004 1.82297674e-003 0. 1.94213365e-003 0.
      3.26550158e-004 1.09127534e-004 6.57166936e-004 2.43905408e-004
      1.31213368e-004 3.92639311e-004 0. 2.70517368e-004 0.
      9.95795999e-005 3.32778400e-005 2.43905408e-004 1.17506704e-003
      8.17566353e-004 2.44646356e-003 0. 5.93830482e-004 0.
      1.01592253e-004 3.39504149e-005 1.17506704e-003 1.11623097e-003
      9.61964543e-004 2.62920489e-003 0. 2.56333454e-003 0.
      7.04606471e-004 2.35467334e-004 1.11623097e-003 4.34321072e-003
      3.53530538e-003 5.09743812e-003 0. 4.87519708e-003 0.
      9.44930653e-004 3.15779529e-004 4.34321072e-003 1.36131479e-003
      1.71788828e-003 3.39911459e-003 0. 3.10000521e-003 0.
      5.48232696e-004 1.83209981e-004 1.36131479e-003 4.73998580e-003
      4.57556732e-003 5.09743812e-003 0. 4.94963676e-003 0.
      1.29192322e-003 4.31738619e-004 4.73998580e-003 3.70511698e-004
      2.71610217e-004 8.12758750e-004 0. 7.15804752e-004 0.
      1.44227553e-004 4.81984243e-005 3.70511698e-004 1.85787759e-003
      9.54285380e-004 2.85557867e-003 0. 1.99549366e-003 0.
      5.01458126e-004 1.67578823e-004 1.85787759e-003 0. 0. 0. 0. 0. 0.
      0. 0. 0. 0. 0. 0. 0. 0. 0. 0. 0. 0. 0. 0. 0. 0. 0. 0. 0. 0. 0. 0.
      0. 0. 0. 0. 0. 0. 0. 0. 0. 0. 0. 0. 0. 0. 0. 0. 0. 0. 0. 0. 0. 0.
      0. 0. 0. 0. 0. 0. 0. 0. 0. 0. 0. 0. 0. 0. 0. 0. 0. 0. 0. 0. 0. 0.
      0. 0. 0. 0. 0. 0. 0. 0. 0. 0. 0. 0. 0. 0. 0. 0. 0. 0. 0. 0. 0. 0.
      0. 0. 0. 0. 0. 4.72178246e-004 1.83192187e-003 3.16078728e-003 0.
      3.05566331e-003 0. 0. 0. 4.72178246e-004 0. 0. 0. 0.
      1.56531296e-005 0. 0. 0. 0. 2.66842544e-003 3.09292506e-003
      3.24335322e-003 0. 3.24335322e-003 0. 0. 0. 2.66842544e-003 0. 0.
      0. 0. 2.15675618e-006 0. 0. 0. 0. 2.58929304e-005 1.23870177e-005
      3.70666494e-005 0. 3.23513414e-005 0. 0. 0. 2.58929304e-005
      2.57333049e-005 4.98175177e-005 1.49072468e-004 0. 1.80621471e-004
      0. 0. 0. 2.57333049e-005 1.89244922e-004 1.23097782e-003
      2.34273449e-003 0. 2.33901315e-003 0. 2.75181064e-005
      9.19606737e-006 1.89244922e-004 5.43895818e-004 1.81190798e-003
      3.79287591e-003 0. 3.88618675e-003 0. 4.92087474e-006
      1.64446988e-006 5.43895818e-004 2.82364408e-003 5.47166402e-003
      6.62023295e-003 0. 6.51925104e-003 0. 8.52527970e-004
      2.84899899e-004 2.82364408e-003 9.20160732e-004 1.71471119e-003
      3.52609972e-003 0. 2.99874553e-003 0. 2.96895951e-006
      9.92174137e-007 9.20160732e-004 1.16847770e-003 2.76971003e-003
      4.47884016e-003 0. 3.57348123e-003 0. 6.89306034e-005
      2.30353999e-005 1.16847770e-003 1.44809865e-005 4.97301698e-006
      1.48811532e-005 0. 8.44635269e-006 0. 0. 0. 1.44809865e-005
      1.38476316e-005 1.17528214e-006 3.51689164e-006 0. 0. 0. 0. 0.
      1.38476316e-005 2.38662105e-004 1.53105741e-003 2.26443796e-003 0.
      2.60328222e-003 0. 3.72292270e-005 1.24413527e-005 2.38662105e-004
      5.61916968e-004 9.04419168e-004 2.70636193e-003 0. 1.89248030e-003
      0. 1.74846660e-004 5.84308364e-005 5.61916968e-004 2.71513127e-003
      5.16088773e-003 6.61061378e-003 0. 6.61061378e-003 0.
      1.43335783e-003 4.99936054e-004 2.71513127e-003 1.99098466e-003
      1.84431532e-003 3.08809313e-003 0. 3.52896005e-003 0.
      1.01515104e-003 3.39246442e-004 1.99098466e-003 8.33595113e-004
      2.08400586e-003 4.10238467e-003 0. 3.30882799e-003 0.
      1.70781728e-004 5.70722514e-005 8.33595113e-004 5.00973838e-004
      1.44808757e-004 4.33322333e-004 0. 7.39657320e-004 0.
      4.07877669e-005 1.36305871e-005 5.00973838e-004 9.22764320e-006 0.
      0. 0. 0. 0. 0. 0. 9.22764320e-006 0. 0. 0. 0. 0. 0. 0. 0. 0.
      5.64518734e-004 5.09804755e-004 1.52552605e-003 0. 1.16589468e-003
      0. 1.65591118e-004 5.53377649e-005 5.64518734e-004 2.04890338e-003
      1.58387178e-003 4.58707940e-003 0. 3.14134546e-003 0.
      6.19905593e-004 2.07161909e-004 2.04890338e-003 2.45918566e-003
      1.50973664e-003 3.10408790e-003 0. 2.98734382e-003 0.
      9.10379225e-004 3.04233457e-004 2.45918566e-003 4.85263159e-003
      3.55848414e-003 5.57189668e-003 0. 3.81455128e-003 0.
      1.87779986e-003 6.27528934e-004 4.85263159e-003 5.70546195e-004
      2.52448139e-004 7.55418907e-004 0. 1.14435155e-003 0.
      1.40142176e-004 4.68331709e-005 5.70546195e-004 1.40818802e-003
      2.60165823e-003 3.38137685e-003 0. 3.21198558e-003 0.
      4.03370213e-004 1.34799484e-004 1.40818802e-003 1.64841240e-005
      1.84533346e-005 5.52192178e-005 0. 6.24318083e-004 0.
      9.08163565e-005 3.03493125e-005 1.64841240e-005 2.86635826e-004
      3.54514399e-004 1.06084021e-003 0. -4.95952554e-004 0.
      8.99522274e-004 3.00604937e-004 2.86635826e-004 0. 0. 0. 0. 0. 0.
      0. 0. 0. 0. 0. 0. 0. 0. 0. 0. 0. 0. 0. 0. 0. 0. 0. 0. 0. 0. 0. 0.
      0. 0. 0. 0. 0. 0. 0. 0. 0. 0. 0. 0. 0. 0. 0. 0. 0. 0. 0. 0. 0. 0.
      0. 0. 0. 0. 0. 0. 0. 0. 0. 0. 0. 0. 0. 0. 0. 0. 0. 0. 0. 0. 0. 0.
      0. 0. 0. 0. 2.30723490e-005 0. 0. 0. 0. 3.86917847e-003
      2.79471371e-003 3.90804978e-003 0. 3.90804978e-003 0. 0. 0.
      3.86917847e-003 0. 0. 0. 0. 3.59776027e-006 0. 0. 0. 0.
      6.36845580e-005 1.85265199e-005 5.54383696e-005 0. 5.39664034e-005
      0. 0. 0. 6.36845580e-005 0. 0. 0. 0. 0. 0. 0. 0. 0. 0. 0. 0. 0. 0.
      0. 0. 0. 0. 0. 0. 0. 0. 0. 0. 0. 0. 0. 0. 0. 0. 0. 0. 0. 0. 0. 0.
      3.77408369e-003 3.15681519e-003 4.41748928e-003 0. 4.62904107e-003
      0. 0. 0. 3.77408369e-003 3.11718346e-003 3.72498692e-003
      4.62904107e-003 0. 3.05539556e-003 0. 0. 0. 3.11718346e-003
      7.09276137e-005 1.53912060e-005 4.60563351e-005 0. 2.90702046e-005
      0. 0. 0. 7.09276137e-005 6.46447224e-005 3.61952311e-006
      1.08309914e-005 0. 0. 0. 0. 0. 6.46447224e-005 0. 0. 0. 0. 0. 0.
      0. 0. 0. -1.40282011e-003 -3.42561223e-004 -1.02506985e-003 0.
      -1.40282011e-003 0. -5.78207488e-004 -1.93227286e-004
      -1.40282011e-003 0. 0. 0. 0. 0. 0. 0. 0. 0. -1.40282011e-003
      -4.40435862e-004 -1.31794706e-003 0. -1.40282011e-003 0.
      -1.27205660e-003 -4.25100035e-004 -1.40282011e-003 1.89287157e-003
      4.21256339e-003 5.70597732e-003 0. 2.19218712e-003 0. 0. 0.
      1.89287157e-003 0. 0. 0. 0. 2.07657868e-004 0. 0. 0. 0.
      5.24213938e-005 -1.91117088e-005 -5.71892961e-005 0.
      -1.79739654e-005 0. 0. 0. 5.24213938e-005 -8.96062586e-004
      -1.21902616e-004 -3.64777690e-004 0. -3.95427269e-005 0. 0. 0.
      -8.96062586e-004 -1.10860658e-003 -2.38610024e-004
      -7.14009395e-004 0. -1.50593941e-003 0. -6.53305091e-004
      -2.18323650e-004 -1.10860658e-003 -4.87597473e-003
      -1.32308982e-003 -3.13067203e-003 0. -3.48657160e-003 0.
      -3.86657985e-003 -2.74324254e-003 -4.87597473e-003
      -1.36949588e-003 -1.03758226e-004 -3.10482981e-004 0.
      -4.97442845e-004 0. -7.09269778e-004 -2.37026106e-004
      -1.36949588e-003 -1.08812435e-003 -4.02688529e-005 7.57504778e-004
      0. 2.61483743e-004 0. -3.08420463e-003 -1.26373337e-003
      -1.08812435e-003 1.43546669e-004 3.76885509e-005 1.12778107e-004
      0. 6.35594712e-004 0. 9.36874858e-005 3.13087912e-005
      1.43546669e-004 3.01142776e-004 5.77937812e-004 1.66802271e-003 0.
      2.46599945e-003 0. 5.54497761e-004 1.85303608e-004 3.01142776e-004
      -3.27181595e-004 4.01592479e-005 1.20171484e-004 0.
      1.25664892e-003 0. 4.42155258e-004 1.47760889e-004
      -3.27181595e-004 1.34134805e-003 2.02686875e-003 3.60052730e-003
      0. 1.32868718e-003 0. 2.36580893e-003 1.26629253e-003
      1.34134805e-003 -4.35837358e-003 -3.12345423e-004 -9.34652926e-004
      0. -1.92722376e-003 0. -3.22772074e-003 -1.21732964e-003
      -4.35837358e-003 -2.90337205e-003 7.24276470e-004 2.16730894e-003
      0. -3.68487497e-004 0. -1.87204464e-003 -1.01052027e-003
      -2.90337205e-003 4.65053454e-004 9.42493498e-004 2.51523638e-003
      0. 2.05080700e-003 0. -1.90028211e-003 -6.95829396e-004
      4.65053454e-004 -1.71383447e-003 9.26199195e-004 1.49651966e-003
      0. 2.44732155e-003 0. -3.58244218e-003 -1.40909036e-003
      -1.71383447e-003 0. 0. 0. 0. 0. 0. 0. 0. 0. 0. 0. 0. 0. 0. 0. 0.
      0. 0. 0. 0. 0. 0. 0. 0. 0. 0. 0. 0. 0. 0. 0. 0. 0. 0. 0. 0. 0. 0.
      0. 0. 0. 0. 0. 0. 0. 0. 0. 0. 0. 0. 0. 0. 0. 0. 0. 0. 0. 0. 0. 0.
      0. 0. 0. 0. 0. 0. 0. 0. 0. 0. 0. 0. 0. 0. 0. 0. 0. 0. 0. 0. 0. 0.
      0. 0. 0. 0. 0. 0. 0. 0. 0. 0. 0. 0. 0. 0. 0. 0. 0. 4.72178246e-004
      1.83192187e-003 3.16078728e-003 0. 3.05566331e-003 0. 0. 0.
      4.72178246e-004 0. 0. 0. 0. 1.56531296e-005 0. 0. 0. 0.
      2.66842544e-003 3.09292506e-003 3.24335322e-003 0. 3.24335322e-003
      0. 0. 0. 2.66842544e-003 0. 0. 0. 0. 2.15675618e-006 0. 0. 0. 0.
      2.58929304e-005 1.23870177e-005 3.70666494e-005 0. 3.23513414e-005
      0. 0. 0. 2.58929304e-005 2.57333049e-005 4.98175177e-005
      1.49072468e-004 0. 1.80621471e-004 0. 0. 0. 2.57333049e-005
      1.89244922e-004 1.23097782e-003 2.34273449e-003 0. 2.33901315e-003
      0. 2.75181064e-005 9.19606737e-006 1.89244922e-004 5.43895818e-004
      1.81190798e-003 3.79287591e-003 0. 3.88618675e-003 0.
      4.92087474e-006 1.64446988e-006 5.43895818e-004 2.82364408e-003
      5.47166402e-003 6.62023295e-003 0. 6.51925104e-003 0.
      8.52527970e-004 2.84899899e-004 2.82364408e-003 9.20160732e-004
      1.71471119e-003 3.52609972e-003 0. 2.99874553e-003 0.
      2.96895951e-006 9.92174137e-007 9.20160732e-004 1.16847770e-003
      2.76971003e-003 4.47884016e-003 0. 3.57348123e-003 0.
      6.89306034e-005 2.30353999e-005 1.16847770e-003 1.44809865e-005
      4.97301698e-006 1.48811532e-005 0. 8.44635269e-006 0. 0. 0.
      1.44809865e-005 1.38476316e-005 1.17528214e-006 3.51689164e-006 0.
      0. 0. 0. 0. 1.38476316e-005 2.38662105e-004 1.53105741e-003
      2.26443796e-003 0. 2.60328222e-003 0. 3.72292270e-005
      1.24413527e-005 2.38662105e-004 5.61916968e-004 9.04419168e-004
      2.70636193e-003 0. 1.89248030e-003 0. 1.74846660e-004
      5.84308364e-005 5.61916968e-004 2.71513127e-003 5.16088773e-003
      6.61061378e-003 0. 6.61061378e-003 0. 1.43335783e-003
      4.99936054e-004 2.71513127e-003 1.99098466e-003 1.84431532e-003
      3.08809313e-003 0. 3.52896005e-003 0. 1.01515104e-003
      3.39246442e-004 1.99098466e-003 8.33595113e-004 2.08400586e-003
      4.10238467e-003 0. 3.30882799e-003 0. 1.70781728e-004
      5.70722514e-005 8.33595113e-004 5.00973838e-004 1.44808757e-004
      4.33322333e-004 0. 7.39657320e-004 0. 4.07877669e-005
      1.36305871e-005 5.00973838e-004 9.22764320e-006 0. 0. 0. 0. 0. 0.
      0. 9.22764320e-006 0. 0. 0. 0. 0. 0. 0. 0. 0. 5.64518734e-004
      5.09804755e-004 1.52552605e-003 0. 1.16589468e-003 0.
      1.65591118e-004 5.53377649e-005 5.64518734e-004 2.04890338e-003
      1.58387178e-003 4.58707940e-003 0. 3.14134546e-003 0.
      6.19905593e-004 2.07161909e-004 2.04890338e-003 2.45918566e-003
      1.50973664e-003 3.10408790e-003 0. 2.98734382e-003 0.
      9.10379225e-004 3.04233457e-004 2.45918566e-003 4.85263159e-003
      3.55848414e-003 5.57189668e-003 0. 3.81455128e-003 0.
      1.87779986e-003 6.27528934e-004 4.85263159e-003 5.70546195e-004
      2.52448139e-004 7.55418907e-004 0. 1.14435155e-003 0.
      1.40142176e-004 4.68331709e-005 5.70546195e-004 1.40818802e-003
      2.60165823e-003 3.38137685e-003 0. 3.21198558e-003 0.
      4.03370213e-004 1.34799484e-004 1.40818802e-003 1.64841240e-005
      1.84533346e-005 5.52192178e-005 0. 6.24318083e-004 0.
      9.08163565e-005 3.03493125e-005 1.64841240e-005 2.86635826e-004
      3.54514399e-004 1.06084021e-003 0. -4.95952554e-004 0.
      8.99522274e-004 3.00604937e-004 2.86635826e-004 0. 0. 0. 0. 0. 0.
      0. 0. 0. 0. 0. 0. 0. 0. 0. 0. 0. 0. 0. 0. 0. 0. 0. 0. 0. 0. 0. 0.
      0. 0. 0. 0. 0. 0. 0. 0. 0. 0. 0. 0. 0. 0. 0. 0. 0. 0. 0. 0. 0. 0.
      0. 0. 0. 0. 0. 0. 0. 0. 0. 0. 0. 0. 0. 0. 0. 0. 0. 0. 0. 0. 0. 0.
      0. 0. 0. 0. 2.30723490e-005 0. 0. 0. 0. 3.86917847e-003
      2.79471371e-003 3.90804978e-003 0. 3.90804978e-003 0. 0. 0.
      3.86917847e-003 0. 0. 0. 0. 3.59776027e-006 0. 0. 0. 0.
      6.36845580e-005 1.85265199e-005 5.54383696e-005 0. 5.39664034e-005
      0. 0. 0. 6.36845580e-005 0. 0. 0. 0. 0. 0. 0. 0. 0. 0. 0. 0. 0. 0.
      0. 0. 0. 0. 0. 0. 0. 0. 0. 0. 0. 0. 0. 0. 0. 0. 0. 0. 0. 0. 0. 0.
      3.77408369e-003 3.15681519e-003 4.41748928e-003 0. 4.62904107e-003
      0. 0. 0. 3.77408369e-003 3.11718346e-003 3.72498692e-003
      4.62904107e-003 0. 3.05539556e-003 0. 0. 0. 3.11718346e-003
      7.09276137e-005 1.53912060e-005 4.60563351e-005 0. 2.90702046e-005
      0. 0. 0. 7.09276137e-005 6.46447224e-005 3.61952311e-006
      1.08309914e-005 0. 0. 0. 0. 0. 6.46447224e-005 0. 0. 0. 0. 0. 0.
      0. 0. 0. -1.40282011e-003 -3.42561223e-004 -1.02506985e-003 0.
      -1.40282011e-003 0. -5.78207488e-004 -1.93227286e-004
      -1.40282011e-003 0. 0. 0. 0. 0. 0. 0. 0. 0. -1.40282011e-003
      -4.40435862e-004 -1.31794706e-003 0. -1.40282011e-003 0.
      -1.27205660e-003 -4.25100035e-004 -1.40282011e-003 1.89287157e-003
      4.21256339e-003 5.70597732e-003 0. 2.19218712e-003 0. 0. 0.
      1.89287157e-003 0. 0. 0. 0. 2.07657868e-004 0. 0. 0. 0.
      5.24213938e-005 -1.91117088e-005 -5.71892961e-005 0.
      -1.79739654e-005 0. 0. 0. 5.24213938e-005 -8.96062586e-004
      -1.21902616e-004 -3.64777690e-004 0. -3.95427269e-005 0. 0. 0.
      -8.96062586e-004 -1.10860658e-003 -2.38610024e-004
      -7.14009395e-004 0. -1.50593941e-003 0. -6.53305091e-004
      -2.18323650e-004 -1.10860658e-003 -4.87597473e-003
      -1.32308982e-003 -3.13067203e-003 0. -3.48657160e-003 0.
      -3.86657985e-003 -2.74324254e-003 -4.87597473e-003
      -1.36949588e-003 -1.03758226e-004 -3.10482981e-004 0.
      -4.97442845e-004 0. -7.09269778e-004 -2.37026106e-004
      -1.36949588e-003 -1.08812435e-003 -4.02688529e-005 7.57504778e-004
      0. 2.61483743e-004 0. -3.08420463e-003 -1.26373337e-003
      -1.08812435e-003 1.43546669e-004 3.76885509e-005 1.12778107e-004
      0. 6.35594712e-004 0. 9.36874858e-005 3.13087912e-005
      1.43546669e-004 3.01142776e-004 5.77937812e-004 1.66802271e-003 0.
      2.46599945e-003 0. 5.54497761e-004 1.85303608e-004 3.01142776e-004
      -3.27181595e-004 4.01592479e-005 1.20171484e-004 0.
      1.25664892e-003 0. 4.42155258e-004 1.47760889e-004
      -3.27181595e-004 1.34134805e-003 2.02686875e-003 3.60052730e-003
      0. 1.32868718e-003 0. 2.36580893e-003 1.26629253e-003
      1.34134805e-003 -4.35837358e-003 -3.12345423e-004 -9.34652926e-004
      0. -1.92722376e-003 0. -3.22772074e-003 -1.21732964e-003
      -4.35837358e-003 -2.90337205e-003 7.24276470e-004 2.16730894e-003
      0. -3.68487497e-004 0. -1.87204464e-003 -1.01052027e-003
      -2.90337205e-003 4.65053454e-004 9.42493498e-004 2.51523638e-003
      0. 2.05080700e-003 0. -1.90028211e-003 -6.95829396e-004
      4.65053454e-004 -1.71383447e-003 9.26199195e-004 1.49651966e-003
      0. 2.44732155e-003 0. -3.58244218e-003 -1.40909036e-003
      -1.71383447e-003 0. 0. 0. 0. 0. 0. 0. 0. 0. 0. 0. 0. 0. 0. 0. 0.
      0. 0. 0. 0. 0. 0. 0. 0. 0. 0. 0. 0. 0. 0. 0. 0. 0. 0. 0. 0. 0. 0.
      0. 0. 0. 0. 0. 0. 0. 0. 0. 0. 0. 0. 0. 0. 0. 0. 0. 0. 0. 0. 0. 0.
      0. 0. 0. 0. 0. 0. 0. 0. 0. 0. 0. 0. 0. 0. 0. 0. 0. 0. 0. 0. 0. 0.
      0. 0. 0. 0. 0. 0. 0. 0. 0. 0. 0. 0. 0. 0. 0. 0. 0. 0. 0. 0. 0. 0.
      0. 0. 0. 0. 0. 0. 0. 0. 0. 0. 0. 0. 0. 0. 0. 0. 0. 0. 0. 0. 0. 0.
      0. 0. 0. 0. 0. 0. 0. 0. 0. 0. 0. 0. 0. 0. 0. 0. 0. 0. 0. 0. 0. 0.
      0. 0. 0. 0. 0. -1.42379513e-003 -2.76088424e-004 -8.26158794e-004
      0. -1.42379513e-003 0. -7.26797560e-004 -2.42883616e-004
      -1.42379513e-003 0. 0. 0. 0. 0. 0. 0. 0. 0. -1.42379513e-003
      -3.54970864e-004 -1.06220401e-003 0. -1.42379513e-003 0.
      -1.42379513e-003 -5.34343999e-004 -1.42379513e-003 0. 0. 0. 0. 0.
      0. 0. 0. 0. 0. 0. 0. 0. 0. 0. 0. 0. 0. 0. 0. 0. 0. 0. 0. 0. 0. 0.
      0. 0. 0. 0. 0. 0. 0. 0. 0. -6.86945976e-004 -1.30414031e-004
      -3.90247034e-004 0. -1.08105224e-003 0. -7.60434952e-004
      -2.54124636e-004 -6.86945976e-004 -4.80286172e-003
      -6.44622138e-004 -1.92894775e-003 0. -3.39045143e-003 0.
      -3.82873463e-003 -3.41673894e-003 -4.80286172e-003
      -1.28700142e-003 -6.78319630e-005 -2.02978321e-004 0.
      -4.47305240e-004 0. -9.46351152e-004 -3.16254736e-004
      -1.28700142e-003 -3.34423734e-003 -1.26751765e-004
      -8.49657663e-005 0. 4.74333344e-003 0. -3.33819864e-003
      -2.16950825e-003 -3.34423734e-003 0. 2.85052556e-005
      8.52982703e-005 0. 9.05171182e-005 0. 0. 0. 0. 7.23074307e-004
      6.37180638e-004 1.78300333e-003 0. 9.89399757e-003 0.
      1.33547722e-003 1.24222087e-003 7.23074307e-004 0. 2.50392914e-004
      7.49268453e-004 0. 7.30210159e-004 0. 4.29913562e-005
      1.43669813e-005 0. 8.57447099e-004 1.66547718e-003 1.66547718e-003
      0. 1.79163215e-003 0. 3.66085995e-004 1.22339581e-004
      8.57447099e-004 -2.85024312e-003 -1.05764761e-004 -3.16487247e-004
      0. -1.24280038e-003 0. -2.91998708e-003 -1.15480123e-003
      -2.85024312e-003 -3.03221704e-003 2.44549374e-005 7.31785112e-005
      0. 1.79958151e-005 0. -2.72617047e-003 -1.46456528e-003
      -3.03221704e-003 -2.21037026e-003 3.34623328e-004 1.00131740e-003
      0. 1.24015450e-003 0. -2.50486936e-003 -9.73807008e-004
      -2.21037026e-003 -2.35291780e-003 1.18699402e-003 2.37366045e-003
      0. 1.73197663e-003 0. -3.57012847e-003 -2.07685377e-003
      -2.35291780e-003 1.87468587e-003 9.87105654e-004 2.72234925e-003
      0. 3.70545429e-003 0. 2.35971739e-003 1.27311470e-003
      1.87468587e-003 3.42409569e-003 2.28274614e-003 3.16428579e-003 0.
      3.76563077e-003 0. 3.02389869e-003 1.21902442e-003 3.42409569e-003
      1.17613783e-003 1.39700226e-003 1.33121223e-003 0. 1.32379355e-003
      0. 2.32893653e-004 7.78289905e-005 1.17613783e-003 6.25689921e-004
      4.98368812e-004 1.49130740e-003 0. 1.91299990e-003 0.
      -1.39006809e-003 -5.62567206e-004 6.25689921e-004 0. 0. 0. 0. 0.
      0. 0. 0. 0. 0. 0. 0. 0. 0. 0. 0. 0. 0. 0. 0. 0. 0. 0. 0. 0. 0. 0.
      0. 0. 0. 0. 0. 0. 0. 0. 0. 0. 0. 0. 0. 0. 0. 0. 0. 0. 0. 0. 0. 0.
      0. 0. 0. 0. 0. 0. 0. 0. 0. 0. 0. 0. 0. 0. 0. 0. 0. 0. 0. 0. 0. 0.
      0. 0. 0. 0. 0. 0. 0. 0. 0. 0. 0. 0. 0. 0. 0. 0. 0. 0. 0. 0. 0. 0.
      0. 0. 0. 0. 0. 0. 0. 0. 0. 0. 0. 0. 0. 0. 0. 0. 0. 0. 0. 0. 0. 0.
      0. 0. 0. 0. 0. 0. 0. 0. 0. 0. 0. 0. 0. 0. 0. 0. 0. 0. 0. 0. 0. 0.
      0. 0. 0. 0. 0. 0. 0. 0. 0. 0. 0. 0. 0. 0. 0. 0. 0. 0. 0. 0. 0. 0.
      0. 0. 0. 0. 0. 0. 0. 0. 0. 0. 0. 0. 0. 0. 0. 0. 0. 0. 0. 0. 0. 0.
      0. 0. 0. -2.85430906e-005 0. 0. 0. 0. -6.25186425e-004
      -1.10176494e-004 -3.29688803e-004 0. -2.79222825e-003 0.
      -5.94132754e-004 -1.98548791e-004 -6.25186425e-004 0. 0. 0. 0.
      -1.84384771e-004 0. 0. 0. 0. -1.63006410e-003 -4.77431458e-004
      -1.42865139e-003 0. -3.99414590e-003 0. -1.63006410e-003
      -1.63006410e-003 -1.63006410e-003 0. 1.14839941e-005
      3.43643660e-005 0. 1.35344017e-005 0. 0. 0. 0. 6.90534886e-004
      1.72048007e-004 5.14831976e-004 0. 1.11906836e-002 0.
      1.52333349e-003 1.26319320e-003 6.90534886e-004 -1.21326419e-004
      1.14000512e-004 3.41131847e-004 0. 9.18858626e-004 0.
      1.60972268e-004 5.37942906e-005 -1.21326419e-004 -8.26486284e-005
      1.01590983e-003 9.35883203e-004 0. 1.08753203e-003 0.
      4.90381615e-004 3.40410392e-004 -8.26486284e-005 -1.50382705e-003
      -3.05484951e-004 -9.14123957e-004 0. -1.80651399e-003 0.
      -1.83611421e-003 -6.13597862e-004 -1.50382705e-003
      -3.56921484e-003 4.74270666e-004 2.95437640e-004 0.
      -1.40327075e-003 0. -4.02158033e-003 -3.62928351e-003
      -3.56921484e-003 -1.17128564e-003 -1.50865482e-004
      -4.51445318e-004 0. -8.58197571e-004 0. -1.92994240e-003
      -8.61126988e-004 -1.17128564e-003 -2.22643139e-003 2.76830571e-004
      8.28379649e-004 0. 6.40367216e-004 0. -3.24839726e-003
      -1.99327455e-003 -2.22643139e-003 2.71890516e-004 1.03230821e-004
      3.08905263e-004 0. 3.23894754e-004 0. 4.11437737e-004
      1.37495546e-004 2.71890516e-004 1.36244460e-003 3.53223935e-004
      1.05697871e-003 0. 1.80604134e-003 0. 4.76714311e-004
      1.59309959e-004 1.36244460e-003 4.25450125e-004 7.09380722e-004
      1.39098417e-003 0. 1.31632213e-003 0. 5.78083273e-004
      1.93185624e-004 4.25450125e-004 1.50939380e-003 3.43274162e-003
      4.33794083e-003 0. 2.95667443e-003 0. -4.54225665e-004
      -1.17232767e-003 1.50939380e-003 -2.80812266e-003 4.17549716e-004
      1.24946458e-003 0. -1.12352590e-003 0. -3.03015159e-003
      -1.91660330e-003 -2.80812266e-003 -9.79963806e-005 2.46598315e-003
      3.66613688e-003 0. 8.18852801e-004 0. -2.71212240e-003
      -3.41307558e-003 -9.79963806e-005 -1.25017518e-003 2.50052195e-004
      7.48249644e-004 0. -1.79974086e-004 0. -2.23318301e-003
      -8.71478522e-004 -1.25017518e-003 -1.81639590e-003 5.01277624e-004
      1.21533428e-003 0. -4.65296645e-004 0. -4.12140787e-003
      -1.60427683e-003 -1.81639590e-003 0. 0. 0. 0. 0. 0. 0. 0. 0. 0. 0.
      0. 0. 0. 0. 0. 0. 0. 0. 0. 0. 0. 0. 0. 0. 0. 0. 0. 0. 0. 0. 0. 0.
      0. 0. 0. 0. 0. 0. 0. 0. 0. 0. 0. 0. 0. 0. 0. 0. 0. 0. 0. 0. 0. 0.
      0. 0. 0. 0. 0. 0. 0. 0. 0. 0. 0. 0. -4.11880715e-003 0. 0. 0. 0.
      0. 0. 0. 0. 0. 0. 0. 0. 0. 0. 0. 0. 0. 0. 0. 0. 0. 0.
      -2.44835701e-006 0. 0. 0. 0. 0. 0. 0. -2.44835701e-006
      -1.26687461e-004 0. 0. 0. 0. 0. 0. 0. -1.26687461e-004
      -3.47510446e-004 -2.09245147e-004 -6.26138877e-004 0.
      -8.54029378e-004 0. -5.26565302e-004 -1.75969326e-004
      -3.47510446e-004 -2.38170731e-003 -1.56709191e-003
      -2.57892860e-003 0. -1.89564913e-003 0. -1.89564913e-003
      -7.78069661e-004 -2.38170731e-003 -4.35447873e-004
      -6.91734836e-004 -2.06992729e-003 0. -1.11592840e-003 0.
      -4.39614902e-004 -1.46911974e-004 -4.35447873e-004
      -5.40115312e-003 -3.75372753e-003 -4.44170274e-003 0.
      -2.91874167e-003 0. -3.40695982e-003 -1.30664965e-003
      -5.40115312e-003 0. 0. 0. 0. -1.75861223e-005 0. 0. 0. 0.
      -2.37266766e-004 -6.10691422e-005 -1.82741438e-004 0.
      -4.18668467e-004 0. -3.78590194e-004 -1.26518251e-004
      -2.37266766e-004 -1.07074702e-004 0. 0. 0. -1.28678497e-004 0. 0.
      0. -1.07074702e-004 -1.62003597e-003 -2.64632923e-004
      -7.91879604e-004 0. -1.53006846e-003 0. -1.47592055e-003
      -1.47592055e-003 -1.62003597e-003 -2.31656269e-003
      -7.31611624e-004 -2.18925602e-003 0. -6.39926293e-004 0.
      -1.19961123e-003 -4.00889636e-004 -2.31656269e-003
      -3.62016610e-003 -8.79685162e-004 -1.78135943e-003 0.
      -1.20216305e-003 0. -1.94221712e-003 -6.49056048e-004
      -3.62016610e-003 -3.73831554e-003 -1.12285186e-003
      -2.35300837e-003 0. -1.04295055e-003 0. -2.02203379e-003
      -6.75729185e-004 -3.73831554e-003 -2.15970166e-003
      -1.68971077e-003 -3.05391313e-003 0. -1.69666717e-003 0.
      -3.69108492e-003 -1.67543604e-003 -2.15970166e-003
      -2.79780303e-004 -5.29268000e-005 -1.58376555e-004 0.
      -3.47627123e-004 0. -5.21100534e-004 -1.74142857e-004
      -2.79780303e-004 9.69025568e-005 8.77665589e-004 2.11320445e-003
      0. 1.32569298e-003 0. -1.87680498e-003 -8.97131162e-004
      9.69025568e-005 -1.36362587e-003 -8.22499424e-005 -2.46122276e-004
      0. -3.73330549e-004 0. -1.53160386e-003 -9.42043844e-004
      -1.36362587e-003 -7.62359763e-004 1.39959471e-003 1.78876007e-003
      0. 2.87029450e-003 0. -1.40617380e-003 -1.73232704e-003
      -7.62359763e-004 -3.16428603e-003 -2.42493450e-004
      -7.25630322e-004 0. -3.36527795e-004 0. -1.72923692e-003
      -5.77881641e-004 -3.16428603e-003 -3.93917412e-003 1.33771668e-004
      1.14821050e-004 0. -2.30808699e-004 0. -2.93585984e-003
      -1.01899554e-003 -3.93917412e-003 -1.80069578e-003
      -5.08456666e-004 -1.52149156e-003 0. -9.70117282e-004 0.
      -2.21852888e-003 -7.41394586e-004 -1.80069578e-003
      -3.01391282e-003 1.13030546e-003 -1.94109307e-004 0.
      -1.35645445e-003 0. -2.32068589e-003 -8.43630929e-004
      -3.01391282e-003 -6.47568435e-004 4.12897265e-004 1.23554235e-003
      0. 5.98106824e-004 0. -1.81575608e-003 -6.41478866e-004
      -6.47568435e-004 2.37883651e-003 1.18399586e-003 1.91861042e-003
      0. 3.35610402e-003 0. -1.21288489e-004 3.09287163e-004
      2.37883651e-003 -1.61564036e-003 7.25425954e-004 1.24465593e-003
      0. 1.02287938e-003 0. -2.28421087e-003 -1.29297888e-003
      -1.61564036e-003 -1.39224599e-003 1.62160967e-003 2.18799268e-003
      0. 4.70698360e-005 0. -2.12020031e-003 -1.92936568e-003
      -1.39224599e-003 -3.28367390e-003 1.18207945e-005 3.53732612e-005
      0. -8.31337820e-004 0. -2.65638134e-003 -9.31912684e-004
      -3.28367390e-003 -2.88723456e-003 8.45457020e-004 1.73901266e-003
      0. 4.52565786e-004 0. -2.61612493e-003 -9.46522690e-004
      -2.88723456e-003 -3.07681900e-003 1.77209600e-004 5.30275807e-004
      0. -1.17918150e-003 0. -1.48670352e-003 -4.96830733e-004
      -3.07681900e-003 -7.29016727e-004 1.51100429e-003 1.06728228e-003
      0. -1.57705287e-003 0. -2.40482576e-003 -8.77591374e-004
      -7.29016727e-004 0. 0. 0. 0. 0. 0. 0. 0. 0. 0. 0. 0. 0. 0. 0. 0.
      0. 0. 2.61481968e-003 6.70171168e-004 2.00540153e-003 0.
      2.14623014e-005 0. 1.77238599e-005 5.92300330e-006 2.61481968e-003
      2.94319890e-003 7.11913337e-004 2.13031122e-003 0. 0. 0. 0. 0.
      2.94319890e-003 2.94319890e-003 9.96305957e-004 2.86852219e-003 0.
      7.98009220e-004 0. 7.12275563e-004 2.38030072e-004 2.94319890e-003
      2.94319890e-003 7.84052536e-004 2.30761454e-003 0. 0. 0. 0. 0.
      2.94319890e-003 8.21692578e-004 2.46317330e-004 7.37074064e-004 0.
      2.38717126e-004 0. 2.97611732e-005 9.94566653e-006 8.21692578e-004
      1.23139063e-003 1.59503528e-004 4.77294321e-004 0. 0. 0. 0. 0.
      1.23139063e-003 1.14364739e-005 0. 0. 0. 0. 0. 0. 0.
      1.14364739e-005 5.50401164e-005 2.35903190e-006 7.05909679e-006 0.
      0. 0. 0. 0. 5.50401164e-005 2.92894104e-003 6.89529581e-004
      2.06333050e-003 0. 0. 0. 0. 0. 2.92894104e-003 2.92894104e-003
      8.66168528e-004 2.55899411e-003 0. 0. 0. 0. 0. 2.92894104e-003
      2.92894104e-003 6.45941414e-004 1.93290086e-003 0. 0. 0. 0. 0.
      2.92894104e-003 2.92797573e-003 6.06793619e-004 1.81575643e-003 0.
      0. 0. 0. 0. 2.92797573e-003 1.16252317e-003 1.85656274e-004
      5.55553182e-004 0. 1.14056111e-005 0. 2.45997580e-006
      8.22082882e-007 1.16252317e-003 1.60436064e-003 2.91929609e-004
      8.73562240e-004 0. 6.05381720e-005 0. 1.06598955e-005
      3.56235910e-006 1.60436064e-003 9.23419648e-005 8.94567711e-006
      2.67687738e-005 0. 0. 0. 0. 0. 9.23419648e-005 2.37900196e-004
      4.14322458e-005 1.23980630e-004 0. 0. 0. 1.97853205e-005
      6.61190688e-006 2.37900196e-004 2.98759574e-003 9.55244817e-004
      2.75398325e-003 0. 0. 0. 0. 0. 2.98759574e-003 2.98759574e-003
      1.38039398e-003 2.98759574e-003 0. 0. 0. 8.57363993e-005
      2.86515988e-005 2.98759574e-003 2.85128225e-003 5.14570507e-004
      1.53979030e-003 0. -2.70570326e-005 0. 3.58027478e-007
      1.19646486e-007 2.85128225e-003 1.33913592e-003 1.94428023e-004
      5.81803673e-004 0. -2.69477628e-003 0. -4.03426529e-004
      -1.34818125e-004 1.33913592e-003 1.87081797e-003 2.63135444e-004
      7.87399244e-004 0. -1.21213816e-004 0. 1.76090834e-005
      5.88465628e-006 1.87081797e-003 1.20979865e-004 -3.86549451e-004
      -1.15669833e-003 0. -3.32547678e-003 0. -1.09117746e-003
      -1.44997763e-003 1.20979865e-004 5.48133161e-004 1.33582886e-004
      3.99729528e-004 0. 1.16563162e-004 0. 1.00753736e-004
      3.36701341e-005 5.48133161e-004 1.03660079e-003 2.66782590e-004
      7.98313005e-004 0. 1.45581365e-003 0. 1.64999475e-003
      1.30552112e-003 1.03660079e-003 3.42083909e-003 2.39365106e-003
      3.88329732e-003 0. 1.67272508e-003 0. 5.97571838e-004
      1.99698188e-004 3.42083909e-003 2.30252370e-003 2.20199232e-003
      3.59702506e-003 0. 2.11903988e-003 0. 1.03924703e-003
      5.23831579e-004 2.30252370e-003 5.80745516e-004 -2.11937604e-005
      -6.34164317e-005 0. -1.51011860e-003 0. -1.29519263e-003
      -4.32831381e-004 5.80745516e-004 -3.27055505e-003 5.40695386e-004
      4.94205742e-004 0. -1.32230739e-003 0. -3.92734306e-003
      -3.59779107e-003 -3.27055505e-003 8.31273152e-004 -1.03988619e-004
      -3.11171985e-004 0. 1.08544214e-003 0. -4.85617609e-004
      -3.78458848e-004 8.31273152e-004 -2.19332124e-003 2.89208343e-004
      8.65418580e-004 0. 1.26707519e-003 0. -2.88183708e-003
      -1.87077653e-003 -2.19332124e-003 7.79110705e-004 2.03920761e-004
      6.10207033e-004 0. 3.18859704e-003 0. 3.83094477e-004
      1.28023559e-004 7.79110705e-004 2.53038626e-004 -4.97586880e-005
      -1.48895982e-004 0. 3.81440373e-006 0. -1.97193047e-004
      -6.58984791e-005 2.53038626e-004 2.30224873e-003 2.17913790e-003
      2.82259146e-003 0. 7.04596285e-003 0. 1.25902658e-003
      4.20744735e-004 2.30224873e-003 9.51605471e-005 4.87004261e-004
      1.07469386e-003 0. 1.48304651e-004 0. -1.79685000e-003
      -1.62101036e-003 9.51605471e-005 -2.51819403e-003 4.06557723e-004
      1.21657306e-003 0. -1.64676900e-003 0. -3.27441073e-003
      -1.99823058e-003 -2.51819403e-003 -3.05644888e-003 1.41409598e-003
      8.62223736e-004 0. -1.85923593e-003 0. -5.42822853e-003
      -4.32075281e-003 -3.05644888e-003 -1.24871964e-003 2.48721626e-004
      7.44268065e-004 0. -1.91701532e-004 0. -2.24144477e-003
      -8.74239428e-004 -1.24871964e-003 -1.84195524e-003 4.82361560e-004
      1.15873036e-003 0. -5.47689444e-004 0. -4.16774489e-003
      -1.61976193e-003 -1.84195524e-003 8.63079273e-004 2.76979554e-004
      8.28827091e-004 0. 4.69500344e-004 0. 2.00413095e-004
      6.69745568e-005 8.63079273e-004 1.29472406e-003 1.58074879e-004
      4.73019230e-004 0. 0. 0. 0. 0. 1.29472406e-003 3.34456936e-003
      1.56151410e-003 3.32961371e-003 0. 1.91661296e-004 0.
      9.66885636e-006 3.23116365e-006 3.34456936e-003 3.34456936e-003
      1.10520620e-003 3.15565104e-003 0. 1.21106939e-004 0.
      7.30687407e-006 2.44183525e-006 3.34456936e-003 1.50748366e-003
      5.16665401e-004 1.41026569e-003 0. 0. 0. 0. 0. 1.50748366e-003
      1.33560854e-003 3.16508143e-004 9.47111694e-004 0. 5.12145518e-004
      0. 2.09051970e-004 6.98616714e-005 1.33560854e-003 2.70391502e-005
      1.38163605e-005 4.13436646e-005 0. 2.05757897e-005 0.
      2.29687157e-005 7.67574238e-006 2.70391502e-005 3.47646237e-005
      1.07460583e-005 3.21561820e-005 0. -4.09235293e-003 0.
      5.71611017e-005 1.91022409e-005 3.47646237e-005 8.08660639e-004
      1.13314294e-004 3.39078862e-004 0. 0. 0. 0. 0. 8.08660639e-004
      1.08204049e-003 1.00770623e-004 3.01543419e-004 0. 0. 0. 0. 0.
      1.08204049e-003 2.94934097e-003 8.50389595e-004 2.54147546e-003 0.
      3.95361159e-004 0. 7.83648065e-005 2.61882124e-005 2.94934097e-003
      2.82510207e-003 2.02784408e-003 2.94771907e-003 0. 8.83964763e-004
      0. 3.08839895e-004 1.03209139e-004 2.82510207e-003 6.54554053e-004
      1.31315843e-004 3.92947317e-004 0. 5.12799197e-005 0.
      -1.32174042e-004 -4.41703560e-005 6.54554053e-004 1.73250926e-004
      1.99394068e-004 3.72860843e-004 0. -4.72917600e-004 0.
      -1.34895905e-003 -5.95374964e-004 1.73250926e-004 -3.98353004e-004
      -6.79234217e-004 -2.03252072e-003 0. -1.04921672e-003 0.
      -4.04405670e-004 -1.35145645e-004 -3.98353004e-004
      -4.70874831e-003 -3.30867223e-003 -3.10993218e-003 0.
      -2.40702764e-003 0. -3.38389352e-003 -1.29894132e-003
      -4.70874831e-003 6.18346559e-004 3.28054375e-005 9.81660851e-005
      0. -1.53549699e-005 0. 7.33167269e-007 2.45011591e-007
      6.18346559e-004 2.56597355e-004 -5.45634321e-005 -1.63273959e-004
      0. -2.82252411e-004 0. -2.35495609e-004 -7.86985620e-005
      2.56597355e-004 2.63419049e-003 1.24391145e-003 2.73403199e-003 0.
      2.93464167e-004 0. 1.58322146e-004 5.29086064e-005 2.63419049e-003
      1.12122914e-003 6.74318522e-004 1.57992693e-003 0. 9.88018932e-004
      0. -3.40263679e-004 -1.08679384e-003 1.12122914e-003
      -2.79803789e-004 8.48110707e-004 5.52009034e-004 0.
      1.34013637e-004 0. -8.92455748e-004 -2.98243569e-004
      -2.79803789e-004 -2.62049329e-003 1.49801676e-003 9.59905738e-004
      0. 7.71313731e-004 0. -1.38735585e-003 -4.63631062e-004
      -2.62049329e-003 -3.21204145e-003 -7.16351031e-004
      -1.13660679e-003 0. -4.83861426e-004 0. -1.88864209e-003
      -6.31152012e-004 -3.21204145e-003 -4.77240980e-003
      -1.33645034e-003 -1.99682498e-003 0. -9.78242722e-004 0.
      -3.42695019e-003 -1.58716692e-003 -4.77240980e-003 2.25395052e-004
      -5.29268000e-005 -1.58376555e-004 0. -2.99919502e-005 0.
      -1.86897189e-004 -6.24579916e-005 2.25395052e-004 1.06246785e-004
      8.77665589e-004 2.11320445e-003 0. 1.40475866e-003 0.
      -1.80873077e-003 -8.74381920e-004 1.06246785e-004 1.92020240e-003
      1.11319998e-003 2.56901048e-003 0. 2.88816425e-003 0.
      1.19785476e-003 4.78287120e-006 1.92020240e-003 -6.69567671e-004
      1.59025111e-003 2.35927640e-003 0. 5.38529595e-003 0.
      -5.09788864e-004 -1.43277086e-003 -6.69567671e-004
      -2.32078391e-003 2.98160966e-003 2.55903532e-003 0.
      2.62432895e-003 0. -8.16627988e-004 -2.67403491e-004
      -2.32078391e-003 -3.89927020e-003 4.83885698e-004 1.16194121e-003
      0. 1.50181993e-003 0. -2.65041017e-003 -9.23603249e-004
      -3.89927020e-003 -3.49329808e-003 -1.72718166e-004
      -5.38557011e-004 0. -2.38655150e-004 0. -1.94782298e-003
      -6.50929462e-004 -3.49329808e-003 -4.22982872e-003
      -6.81214035e-004 -1.95943634e-003 0. -1.34444307e-003 0.
      -2.32068589e-003 -8.43630929e-004 -4.22982872e-003
      -6.68367604e-004 4.02997772e-004 1.20591954e-003 0.
      1.86851423e-004 0. -1.96075765e-003 -6.89935987e-004
      -6.68367604e-004 -5.70522796e-004 1.01871241e-003 1.63353770e-003
      0. 5.00748341e-004 0. -3.13386368e-003 -1.04728364e-003
      -5.70522796e-004 -1.59343751e-003 7.24107726e-004 1.24071131e-003
      0. 1.17745914e-003 0. -2.18296843e-003 -1.25914544e-003
      -1.59343751e-003 -1.46962656e-003 1.59817212e-003 2.11785850e-003
      0. -1.27253617e-004 0. -2.21375586e-003 -1.96063053e-003
      -1.46962656e-003 -3.26908240e-003 1.09663575e-004 2.48513068e-004
      0. -6.04114786e-004 0. -2.42915843e-003 -8.37790896e-004
      -3.26908240e-003 -3.43825971e-003 7.05464568e-004 1.32010353e-003
      0. 2.78242340e-004 0. -2.61612493e-003 -9.46522690e-004
      -3.43825971e-003 -3.39763705e-003 -3.79662961e-004
      -1.13609363e-003 0. -1.14250556e-003 0. -1.48670352e-003
      -4.96830733e-004 -3.39763705e-003 -2.46273074e-003
      -2.22709612e-004 -6.66431675e-004 0. -1.57705287e-003 0.
      -2.40482576e-003 -8.77591374e-004 -2.46273074e-003 1.25287287e-003
      3.39026388e-004 8.94381839e-004 0. 0. 0. 0. 0. 1.25287287e-003
      4.78982314e-004 9.57779921e-005 2.86603987e-004 0. 7.91177794e-004
      0. 5.91349439e-004 1.97619098e-004 4.78982314e-004 2.37165950e-004
      3.00838175e-004 9.00219893e-004 0. 1.42199825e-003 0.
      3.12142802e-004 1.04312654e-004 2.37165950e-004 3.04927671e-004
      2.94545287e-004 8.81389948e-004 0. -2.92397279e-004 0.
      7.09813961e-004 2.37207380e-004 3.04927671e-004 3.78811790e-004
      1.68765488e-003 1.96229597e-003 0. 2.01575411e-003 0.
      2.72127887e-004 9.09403607e-005 3.78811790e-004 1.13404989e-004
      -7.50663867e-006 -8.10618920e-004 0. -2.48703687e-003 0.
      -1.03251240e-003 -3.45048727e-004 1.13404989e-004 1.47557713e-003
      1.17881491e-003 3.52480682e-003 0. 2.69554555e-003 0.
      1.43514189e-003 4.96254303e-004 1.47557713e-003 -1.40170730e-003
      -2.95611867e-003 -4.06738510e-003 0. -2.69465591e-003 0.
      -1.17189391e-003 -3.91627458e-004 -1.40170730e-003 2.88697538e-005
      -1.00128691e-005 -2.99621479e-005 0. -2.48405431e-005 0.
      -8.71989541e-005 -2.91404303e-005 2.88697538e-005 -1.35898779e-004
      2.04560405e-004 6.12120377e-004 0. 5.75677877e-005 0.
      -8.45189148e-004 -2.82447989e-004 -1.35898779e-004
      -3.78756777e-005 -2.33350380e-004 -6.98270393e-004 0.
      -1.81046576e-004 0. 3.02448771e-005 1.01070382e-005
      -3.78756777e-005 -1.56559888e-003 -3.86862885e-005
      -9.15582525e-004 0. 3.16967780e-004 0. -2.97444128e-003
      -1.59211131e-003 -1.56559888e-003 -1.30261804e-004
      -2.96911545e-004 -8.88467068e-004 0. -8.70257034e-004 0.
      -6.79642370e-004 -2.27125260e-004 -1.30261804e-004
      -1.04024587e-003 7.12155539e-004 -9.37277582e-005 0.
      -2.43932824e-003 0. -2.60909018e-003 -1.37358764e-003
      -1.04024587e-003 -2.72542471e-004 -2.58323184e-004
      -7.72999483e-004 0. -6.58295117e-004 0. -2.17276523e-004
      -7.26101352e-005 -2.72542471e-004 -2.01257615e-004
      -2.32550701e-006 -6.96022516e-006 0. -2.86015822e-003 0.
      -1.62158103e-004 -5.41902627e-005 -2.01257615e-004
      -6.75810676e-004 2.01750445e-004 6.03712338e-004 0.
      1.33642287e-004 0. -6.92432572e-004 -2.31399201e-004
      -6.75810676e-004 -1.36016402e-003 3.38141457e-004 1.01184659e-003
      0. 2.64441391e-004 0. -5.12804545e-004 -1.71370615e-004
      -1.36016402e-003 -2.25570309e-003 6.15016674e-004 -1.81312396e-004
      0. 1.21696561e-003 0. -2.43532960e-003 -8.52679601e-004
      -2.25570309e-003 -3.46168107e-003 2.43791117e-004 2.22368937e-004
      0. 1.18619367e-003 0. -2.75865686e-003 -9.33731208e-004
      -3.46168107e-003 -1.65276392e-003 7.17583403e-004 1.17902549e-004
      0. 4.12273395e-004 0. -1.52255979e-003 -5.08813770e-004
      -1.65276392e-003 -2.39344477e-003 -3.92780174e-004
      -3.65529675e-004 0. -2.94809957e-004 0. -2.11790483e-003
      -7.14552065e-004 -2.39344477e-003 3.12725111e-004 8.45540198e-005
      2.53016944e-004 0. -2.69444456e-004 0. -1.49626634e-004
      -5.00025853e-005 3.12725111e-004 2.08618911e-003 1.52284908e-003
      1.10002339e-003 0. 5.48200507e-004 0. 3.34477460e-004
      1.11776164e-004 2.08618911e-003 -9.58219054e-004 7.39869254e-004
      1.28715299e-003 0. 7.19961768e-004 0. -3.32780677e-004
      -1.11209716e-004 -9.58219054e-004 4.13439775e-005 1.04856805e-003
      1.41972292e-003 0. 1.48288242e-003 0. 1.04802579e-003
      3.50232993e-004 4.13439775e-005 -4.04170761e-003 -4.75884153e-005
      -4.79245413e-004 0. 1.52129284e-003 0. -2.23927549e-003
      -7.48328050e-004 -4.04170761e-003 -4.63719852e-003
      -1.04437233e-003 -3.03525594e-003 0. -1.16096344e-003 0.
      -2.96111614e-003 -9.89554217e-004 -4.63719852e-003
      -1.46599300e-003 -4.31339431e-004 -7.63379561e-004 0.
      -3.30022711e-004 0. -2.10139132e-003 -8.42845824e-004
      -1.46599300e-003 -1.28289824e-003 3.97021067e-004 -4.86838049e-004
      0. -3.16233328e-003 0. -3.27717280e-003 -1.60648278e-003
      -1.28289824e-003 1.68171281e-003 8.84324603e-004 2.60925875e-003
      0. -3.56949895e-004 0. -5.41432411e-004 -1.80937583e-004
      1.68171281e-003 2.01290241e-003 2.91556004e-003 3.75357131e-003 0.
      -1.11785554e-003 0. -1.73952314e-003 -5.81319095e-004
      2.01290241e-003 -1.08884147e-003 -2.65881790e-005 -7.95616143e-005
      0. -1.58943090e-004 0. -2.90199649e-004 -9.69796383e-005
      -1.08884147e-003 -5.38855384e-004 3.69416666e-004 1.10543275e-003
      0. 9.75334202e-004 0. 6.31923147e-004 2.11178238e-004
      -5.38855384e-004 -4.25492087e-003 -5.40807610e-004
      -1.61830080e-003 0. -1.58961036e-003 0. -2.93118227e-003
      -9.79550648e-004 -4.25492087e-003 -1.86057424e-003
      -5.09662750e-005 -1.52512817e-004 0. -1.87020143e-003 0.
      -2.53282976e-003 -7.63620366e-004 -1.86057424e-003
      -6.40642829e-004 8.63941968e-004 6.70975307e-004 0.
      -3.09472391e-003 0. -3.83950374e-003 -1.60225958e-003
      -6.40642829e-004 1.58588495e-003 1.44019385e-003 1.17768627e-003
      0. -1.82500435e-003 0. -2.97587714e-003 -1.58370857e-003
      1.58588495e-003 1.51349045e-003 1.91774359e-003 3.40114324e-003 0.
      -1.80700084e-003 0. -1.74293679e-003 -5.82459790e-004
      1.51349045e-003 2.25877762e-003 1.52455643e-003 1.42107753e-003 0.
      -2.21193675e-003 0. -2.82243185e-004 -9.43209088e-005
      2.25877762e-003 8.51254008e-005 1.50729157e-003 2.19332171e-003 0.
      2.21707113e-003 0. 3.72292270e-005 1.24413527e-005 8.51254008e-005
      3.01462774e-006 4.00187884e-004 1.19751389e-003 0. 7.23745325e-004
      0. -7.96406239e-005 -2.66145707e-005 3.01462774e-006
      1.31389953e-003 3.12948832e-003 3.79632670e-003 0. 3.70312273e-003
      0. 6.70716981e-004 2.45074858e-004 1.31389953e-003
      -2.00507906e-003 -2.60513509e-003 -2.57262448e-003 0.
      -2.13175756e-003 0. -9.29109054e-004 -3.10492731e-004
      -2.00507906e-003 4.16607480e-004 1.23207353e-003 1.75921246e-003
      0. 1.32725923e-003 0. 3.96192918e-005 1.32399991e-005
      4.16607480e-004 -4.07967344e-003 -2.17468780e-003 -3.61827924e-003
      0. -2.93466216e-003 0. -3.03595699e-003 -1.10902882e-003
      -4.07967344e-003 -1.54714944e-004 -1.16271229e-004
      -3.47926514e-004 0. -6.36400655e-004 0. -8.74602920e-005
      -2.92277691e-005 -1.54714944e-004 -2.71531637e-003 1.20581454e-003
      3.01470020e-004 0. -4.55460249e-005 0. -1.95577065e-003
      -6.53585710e-004 -2.71531637e-003 1.50541864e-005 -1.23343598e-005
      -3.69089285e-005 0. -2.21398341e-006 0. -8.49463395e-005
      -2.83876361e-005 1.50541864e-005 9.34717304e-004 5.88317169e-004
      1.76046405e-003 0. 8.94408964e-004 0. 1.75907029e-004
      5.87851900e-005 9.34717304e-004 -1.47036067e-003 -1.31146691e-003
      -2.35298485e-003 0. -2.31375778e-003 0. -6.22312829e-004
      -2.07966325e-004 -1.47036067e-003 -1.43878045e-003 4.96430672e-004
      -1.44241101e-004 0. -1.85151934e-003 0. -1.85009139e-003
      -6.67248736e-004 -1.43878045e-003 -2.33067013e-003
      -7.44759454e-004 -1.72592083e-003 0. -2.12642713e-003 0.
      -1.99166522e-003 -6.65581028e-004 -2.33067013e-003
      -2.88831117e-003 2.99011986e-003 1.45190500e-003 0.
      -9.67081462e-004 0. -3.69022321e-003 -2.65226699e-003
      -2.88831117e-003 -9.23334272e-004 4.02725331e-004 1.20510417e-003
      0. 1.13154110e-003 0. -7.38144270e-004 -2.46675307e-004
      -9.23334272e-004 1.84256191e-004 2.96757091e-003 3.87860369e-003
      0. 3.41075147e-003 0. 4.34463553e-004 1.45189872e-004
      1.84256191e-004 3.41917563e-004 4.31518565e-004 1.29126513e-003 0.
      6.32690964e-004 0. 5.36666630e-005 1.79344734e-005 3.41917563e-004
      1.59186719e-004 9.26946595e-005 2.77378014e-004 0. 2.66894858e-005
      0. -2.17362147e-004 -7.26387880e-005 1.59186719e-004
      -7.67361373e-004 9.04024113e-004 1.44403172e-003 0.
      -1.10747491e-003 0. -2.31810473e-003 -8.15307372e-004
      -7.67361373e-004 3.61309998e-004 1.38347025e-003 2.11301213e-003
      0. -2.16319575e-003 0. -3.55963199e-003 -1.63314550e-003
      3.61309998e-004 -2.83525698e-003 2.23950949e-003 1.68951065e-003
      0. -1.04089594e-003 0. -3.54050682e-003 -2.07280321e-003
      -2.83525698e-003 -2.28666281e-003 1.65393762e-003 8.42056703e-004
      0. -2.58731120e-003 0. -4.55215154e-003 -2.58327904e-003
      -2.28666281e-003 -1.13895047e-003 7.09423563e-004 2.12286063e-003
      0. 1.03406829e-003 0. -4.96421824e-004 -1.65895792e-004
      -1.13895047e-003 1.17906588e-004 1.61399064e-003 1.47667772e-003
      0. -1.13205682e-003 0. -1.18407852e-003 -3.95698735e-004
      1.17906588e-004 4.32339555e-004 5.43368624e-005 1.62596290e-004 0.
      -3.54730233e-004 0. -5.99093968e-004 -2.00207010e-004
      4.32339555e-004 3.35795048e-004 5.08312718e-004 1.52106234e-003 0.
      -8.99186416e-004 0. -1.41989987e-003 -4.74506378e-004
      3.35795048e-004 9.78710712e-004 1.68119045e-003 1.40134885e-003 0.
      -1.94824464e-003 0. -3.53505253e-003 -1.25528441e-003
      9.78710712e-004 -2.46103387e-004 1.83882879e-003 7.04059086e-004
      0. -2.34680693e-003 0. -3.58400075e-003 -1.45480747e-003
      -2.46103387e-004 -2.27725017e-003 9.37400502e-004 8.35478946e-004
      0. -2.37071910e-003 0. -3.90423113e-003 -2.11377186e-003
      -2.27725017e-003 -2.05894420e-003 3.69331538e-004 -1.30982498e-005
      0. -2.16594641e-003 0. -2.37601250e-003 -8.50490411e-004
      -2.05894420e-003 -4.03456332e-004 6.46137283e-004 8.89247865e-004
      0. -1.82678225e-003 0. -1.04944105e-003 -3.50705202e-004
      -4.03456332e-004 8.97645950e-004 1.00566039e-003 3.03634326e-004
      0. -1.65933475e-003 0. -4.42259887e-004 -1.47795581e-004
      8.97645950e-004 1.20282720e-003 1.39745220e-003 1.73887529e-003 0.
      -1.05731597e-003 0. -1.27059279e-003 -4.24610364e-004
      1.20282720e-003 1.61110528e-003 7.04179751e-004 1.61202496e-003 0.
      -1.97346276e-003 0. -7.40483287e-004 -2.47456832e-004
      1.61110528e-003 2.98294239e-004 2.20054085e-003 -1.75147463e-004
      0. -4.33967914e-003 0. -3.65371699e-003 -1.22101011e-003
      2.98294239e-004 1.35757809e-003 -2.82724097e-004 -1.42095517e-003
      0. -3.80131905e-003 0. -1.13585207e-003 -4.95864369e-004
      1.35757809e-003 -8.13037506e-004 -5.74515550e-004 -1.70310400e-003
      0. -3.06780846e-003 0. -9.23560874e-004 -3.47315101e-004
      -8.13037506e-004 7.68251542e-004 -1.33954047e-003 -1.84328028e-003
      0. -2.37517129e-003 0. -3.45215485e-005 -1.14173556e-004
      7.68251542e-004 5.82717592e-004 2.61895824e-004 -2.94952897e-005
      0. -1.28665532e-003 0. -1.68826606e-004 -5.64188631e-005
      5.82717592e-004 9.85547085e-004 4.71215753e-004 8.94217053e-004 0.
      -3.34672979e-004 0. 2.03055388e-004 6.78575161e-005
      9.85547085e-004 1.80832273e-003 2.05881335e-003 2.08446220e-003 0.
      1.77246437e-003 0. -8.63884852e-005 -2.88695883e-005
      1.80832273e-003 -2.56400020e-003 -2.81092332e-004 -8.18988949e-004
      0. -1.52999349e-003 0. -1.91887212e-003 -7.10349588e-004
      -2.56400020e-003 -1.47625979e-004 -8.37464322e-005
      -2.50600278e-004 0. -7.75539724e-004 0. -2.11909661e-004
      -7.08166699e-005 -1.47625979e-004 -2.71811942e-003 3.84260966e-005
      -2.29961053e-003 0. -3.15962452e-003 0. -2.96074105e-003
      -1.79415452e-003 -2.71811942e-003 -2.40866484e-005 1.56423957e-005
      4.68078324e-005 0. 7.26034268e-005 0. -1.01377236e-005
      -3.38785799e-006 -2.40866484e-005 -1.47975853e-003 2.96695740e-004
      -6.69655681e-004 0. -2.24375306e-003 0. -1.75758172e-003
      -3.76776676e-004 -1.47975853e-003 7.12533711e-006 1.52417051e-005
      4.56088237e-005 0. 2.17699038e-004 0. 2.04082316e-005
      6.82009068e-006 7.12533711e-006 -6.73997158e-004 -4.34667105e-004
      -1.87465025e-003 0. -2.73641455e-003 0. -2.42478587e-003
      -8.10322759e-004 -6.73997158e-004 -4.32769244e-004 5.71592245e-005
      1.71041436e-004 0. 6.15382509e-004 0. -3.69742629e-004
      -1.23561680e-004 -4.32769244e-004 -9.88986343e-004 9.14158882e-004
      2.58204620e-003 0. 2.00104550e-003 0. -4.57416405e-004
      -1.52860914e-004 -9.88986343e-004 -1.90675573e-003 8.39960237e-004
      7.87196099e-004 0. 1.37750700e-004 0. -1.21742184e-003
      -4.43412486e-004 -1.90675573e-003 -1.73351530e-003 1.63809652e-003
      1.38236780e-003 0. -5.28397541e-005 0. -1.43697078e-003
      -2.76378531e-004 -1.73351530e-003 -8.81165499e-004 7.52120977e-004
      4.30041167e-004 0. -4.94800683e-004 0. -1.34777161e-003
      -4.50402178e-004 -8.81165499e-004 -3.36012058e-003
      -4.77141992e-004 -1.91055844e-003 0. -8.65787733e-004 0.
      -4.08290606e-003 -2.34655151e-003 -3.36012058e-003 6.84181519e-004
      4.89590049e-004 1.15998206e-003 0. 7.21858814e-004 0.
      -1.10045483e-003 -3.67753208e-004 6.84181519e-004 -3.38669168e-004
      3.64476227e-006 -1.25047727e-003 0. 3.85329826e-004 0.
      -2.16296664e-003 -9.32958676e-004 -3.38669168e-004
      -4.38115094e-004 1.57093583e-003 2.65693921e-003 0.
      2.10210425e-003 0. -1.50173786e-004 -5.01857103e-005
      -4.38115094e-004 3.69941517e-005 1.10425334e-003 1.79832615e-003
      0. 4.34182119e-004 0. -7.63756689e-004 -2.55234481e-004
      3.69941517e-005 -1.36372540e-003 2.19063414e-003 2.02492322e-003
      0. 1.50040444e-003 0. -6.28604961e-004 2.20577786e-004
      -1.36372540e-003 -1.08110649e-003 2.01281882e-003 9.41729406e-004
      0. 1.73384949e-004 0. -1.90397678e-003 -6.36276323e-004
      -1.08110649e-003 -3.00467317e-003 -3.26508016e-004
      -2.00542365e-003 0. -5.45697403e-004 0. -2.92280852e-003
      -1.17245119e-003 -3.00467317e-003 -2.06862204e-003
      -1.38896843e-003 -2.93318811e-003 0. -3.46093671e-003 0.
      -1.97018124e-003 -6.58400706e-004 -2.06862204e-003
      -1.09857379e-003 -6.30226801e-004 -1.88587571e-003 0.
      -4.60244191e-004 0. -1.03767810e-003 -3.46774235e-004
      -1.09857379e-003 -6.48661924e-004 -5.38778491e-004
      -1.61222846e-003 0. -8.44701426e-004 0. -4.58830153e-004
      -1.53333196e-004 -6.48661924e-004 2.59130914e-003 3.80450697e-003
      4.84272558e-003 0. -5.61580709e-005 0. -1.03012612e-003
      -3.44250497e-004 2.59130914e-003 1.56622875e-004 7.43235461e-004
      2.07958114e-003 0. 2.64394679e-004 0. -1.32116649e-004
      -4.41510238e-005 1.56622875e-004 -8.31830781e-004 7.82679126e-004
      -8.61523207e-004 0. -2.95000686e-003 0. -2.33375235e-003
      -7.79899827e-004 -8.31830781e-004 1.25100848e-003 1.22613419e-004
      -9.73209157e-004 0. -2.44038808e-003 0. 1.70982734e-004
      5.71400778e-005 1.25100848e-003 -1.77012605e-003 -1.56814558e-003
      -3.29397549e-003 0. -4.84945020e-003 0. -1.69606181e-003
      -6.61124825e-004 -1.77012605e-003 -2.17430992e-004
      -2.21921154e-003 -3.62222455e-003 0. -3.82086029e-003 0.
      -3.63788684e-004 -1.21571735e-004 -2.17430992e-004
      -4.07948304e-004 -6.07068650e-004 -1.81657774e-003 0.
      -1.45360781e-003 0. -3.62455787e-004 -1.21126504e-004
      -4.07948304e-004 6.84822735e-005 -4.80003859e-004 -1.43635296e-003
      0. -1.72471791e-003 0. -1.20876366e-005 -4.03943613e-006
      6.84822735e-005 6.57964410e-005 4.59081057e-004 1.59737639e-004 0.
      -6.43510197e-004 0. 6.67961314e-004 2.51641031e-004
      6.57964410e-005 2.08461730e-004 5.85705129e-005 -4.40394040e-004
      0. -1.39692135e-003 0. -1.72649990e-004 -5.76968159e-005
      2.08461730e-004 1.82991254e-003 -1.09837926e-003 -1.98200578e-003
      0. -3.22215213e-003 0. 1.66480924e-004 5.56353516e-005
      1.82991254e-003 1.83577056e-003 1.54310721e-004 -2.60291155e-003
      0. -3.06820986e-003 0. 1.59632546e-004 5.33464117e-005
      1.83577056e-003 1.34987757e-004 -2.19823816e-003 -3.22492467e-003
      0. -3.80320195e-003 0. -3.29852664e-005 -1.10230412e-005
      1.34987757e-004 1.58080086e-003 -7.83229538e-004 -1.45144470e-003
      0. -2.95222062e-003 0. 5.41372210e-005 1.80917523e-005
      1.58080086e-003 1.10098474e-004 -3.94376140e-004 -1.18012191e-003
      0. -1.97641598e-003 0. 3.37691490e-005 1.12850857e-005
      1.10098474e-004 6.48625894e-004 -4.97540459e-004 -1.23852224e-003
      0. -2.34670634e-003 0. 7.79288075e-006 2.60425031e-006
      6.48625894e-004 8.51254008e-005 1.50729157e-003 2.19332171e-003 0.
      2.21707113e-003 0. 3.72292270e-005 1.24413527e-005 8.51254008e-005
      1.01086689e-005 4.43640660e-004 1.32754073e-003 0. 1.04524475e-003
      0. 2.48194829e-006 8.29423584e-007 1.01086689e-005 3.73986922e-003
      3.71526275e-003 5.54918265e-003 0. 4.14566556e-003 0.
      7.13035290e-004 2.59216904e-004 3.73986922e-003 2.39832117e-003
      7.04251986e-004 2.10738718e-003 0. 1.01307605e-003 0.
      3.72292270e-005 1.24413527e-005 2.39832117e-003 2.83862907e-003
      1.78929220e-003 3.42662074e-003 0. 3.02862911e-003 0.
      4.21197910e-004 1.40757053e-004 2.83862907e-003 1.11313642e-003
      -5.16394321e-005 4.07335145e-004 0. -2.49490229e-004 0.
      -2.62233196e-004 -8.76339691e-005 1.11313642e-003 7.87605008e-004
      1.60075462e-004 4.79006645e-004 0. -2.61823676e-004 0.
      -3.22371707e-005 -1.07731239e-005 7.87605008e-004 -6.56925957e-004
      -7.93934159e-004 -1.23292638e-003 0. -1.87152601e-003 0.
      -1.40967849e-003 -4.71091014e-004 -6.56925957e-004 1.08232838e-004
      6.60102160e-005 1.97527246e-004 0. 3.42560990e-004 0.
      5.02987859e-005 1.68090137e-005 1.08232838e-004 1.34722737e-003
      7.60870811e-004 2.27680942e-003 0. 1.61224918e-003 0.
      4.24037280e-004 1.41706128e-004 1.34722737e-003 2.68428307e-003
      7.49535684e-004 2.24289135e-003 0. -5.60018198e-005 0.
      1.33211739e-004 4.45171536e-005 2.68428307e-003 2.96605146e-003
      1.92521804e-003 3.60249891e-003 0. -1.70020823e-004 0.
      -3.71315196e-004 -1.73067296e-004 2.96605146e-003 1.67313626e-003
      3.50589369e-004 1.04909553e-003 0. -5.30664947e-005 0.
      -4.40621370e-004 -1.47248269e-004 1.67313626e-003 1.27229359e-004
      2.19244044e-003 2.15684529e-003 0. 1.12046218e-004 0.
      -1.94872427e-003 -2.07028794e-003 1.27229359e-004 8.35213636e-004
      1.71490246e-004 5.13163279e-004 0. 4.56202513e-004 0.
      -4.74708904e-005 -1.58639577e-005 8.35213636e-004 8.39417393e-004
      4.01778088e-004 1.20227109e-003 0. 2.22933409e-003 0.
      5.55065635e-004 1.85493322e-004 8.39417393e-004 9.59699450e-004
      5.41697664e-004 1.62096240e-003 0. 1.00822921e-003 0.
      2.22401155e-004 7.43226774e-005 9.59699450e-004 1.04143168e-003
      2.51835736e-004 7.53587403e-004 0. 1.47330080e-004 0.
      -6.27113477e-005 -2.09571372e-005 1.04143168e-003 3.43698263e-003
      1.96836120e-003 4.55168588e-003 0. 2.09274862e-004 0.
      -8.85308953e-004 -3.36491736e-004 3.43698263e-003 4.23454354e-003
      1.00115186e-003 5.77127736e-004 0. -2.81846058e-003 0.
      -1.61485525e-003 -6.62327802e-004 4.23454354e-003 5.52532845e-004
      1.62326673e-003 1.69331301e-003 0. -8.80021253e-004 0.
      -1.68564846e-003 -1.45294121e-003 5.52532845e-004 -5.61798573e-004
      -2.47371476e-003 -2.60207383e-003 0. -5.22611616e-003 0.
      -3.90063203e-003 -2.38286983e-003 -5.61798573e-004 7.95403088e-004
      2.38195207e-004 7.12769397e-004 0. 1.30772055e-003 0.
      5.43598435e-004 1.81661118e-004 7.95403088e-004 -7.01583689e-004
      -6.68352004e-005 -1.99996037e-004 0. -2.25577620e-003 0.
      -2.69732578e-003 -9.01400519e-004 -7.01583689e-004 1.36326288e-003
      2.73768121e-004 8.19216308e-004 0. 1.90294611e-006 0.
      1.40713537e-005 4.70231589e-006 1.36326288e-003 8.97339254e-004
      5.49909077e-004 1.64553453e-003 0. -3.01564200e-004 0.
      -3.65321699e-004 -1.22084297e-004 8.97339254e-004 4.87999897e-003
      2.44524051e-003 1.87185372e-003 0. -6.00076979e-004 0.
      -8.31298006e-004 -3.45299137e-004 4.87999897e-003 1.23263162e-003
      1.84499077e-004 6.66028063e-006 0. -8.63917929e-004 0.
      -1.63322047e-003 -5.97343605e-004 1.23263162e-003 -1.00552186e-003
      -1.30101701e-003 -1.37227145e-003 0. -4.07635700e-003 0.
      -3.09939869e-003 -1.78856181e-003 -1.00552186e-003
      -4.24076291e-003 -5.73240977e-004 -2.18092697e-003 0.
      -1.34784717e-003 0. -2.25002086e-003 -8.08386132e-004
      -4.24076291e-003 -1.11265259e-003 -7.56312584e-005
      -2.26316944e-004 0. -4.93852131e-004 0. -1.22631481e-003
      -4.09813743e-004 -1.11265259e-003 -1.87369343e-003
      -1.44307647e-004 -4.31823370e-004 0. -9.85803665e-004 0.
      -1.37084792e-003 -4.58113762e-004 -1.87369343e-003 1.74791308e-003
      1.43230648e-003 1.84317271e-003 0. -4.56281341e-005 0.
      -3.06686241e-004 -1.02489423e-004 1.74791308e-003 1.48108054e-003
      8.73540819e-004 2.11881706e-003 0. -8.20505491e-004 0.
      -6.51677838e-004 -2.17779569e-004 1.48108054e-003 8.34394828e-004
      1.41741347e-003 1.04755443e-003 0. -1.68691447e-003 0.
      -1.68845302e-003 -7.16976705e-004 8.34394828e-004 -8.93657736e-004
      4.19020915e-004 2.04901371e-004 0. -3.04479292e-003 0.
      -3.18827457e-003 -1.23105769e-003 -8.93657736e-004
      -3.77235957e-003 -5.52039943e-004 -1.11420662e-003 0.
      -7.88293604e-004 0. -1.87361601e-003 -6.64807332e-004
      -3.77235957e-003 -3.10520572e-003 -5.97820210e-004
      -1.41659752e-003 0. -1.48786546e-003 0. -2.66884128e-003
      -9.94517817e-004 -3.10520572e-003 -2.17950693e-003
      -1.72098080e-004 -5.14983025e-004 0. -3.86604137e-004 0.
      -1.14671921e-003 -3.83213890e-004 -2.17950693e-003
      -2.05753744e-003 -2.36194755e-004 -7.06783496e-004 0.
      -1.21470817e-004 0. -8.69002659e-004 -2.90405791e-004
      -2.05753744e-003 2.30617332e-003 2.21134792e-003 2.54090317e-003
      0. 2.40514963e-003 0. 4.25365870e-005 1.42150002e-005
      2.30617332e-003 4.81899588e-005 -5.69554722e-005 -1.48286970e-004
      0. -2.22228962e-004 0. -2.37849657e-004 -7.94853768e-005
      4.81899588e-005 2.62596412e-003 1.11393060e-003 2.27019587e-003 0.
      -3.40071419e-004 0. -6.20827705e-005 -2.07470239e-005
      2.62596412e-003 9.49683890e-004 5.00286638e-004 7.31356966e-004 0.
      -5.75764396e-004 0. -1.22609257e-003 -5.79995627e-004
      9.49683890e-004 5.46315103e-004 1.07370710e-004 3.21293977e-004 0.
      2.10863596e-004 0. 5.74594515e-006 1.92019843e-006 5.46315103e-004
      -5.79651794e-004 -4.17230302e-004 3.11755030e-005 0.
      -5.37341868e-004 0. -6.75482326e-004 -2.25734912e-004
      -5.79651794e-004 5.87599345e-007 0. 0. 0. -4.30421096e-006 0. 0.
      0. 5.87599345e-007 -5.12826839e-004 -4.62572381e-004
      -9.12434829e-004 0. -8.60480883e-004 0. -1.19949388e-003
      -4.00850782e-004 -5.12826839e-004 4.42357676e-004 7.15561546e-005
      2.14122629e-004 0. 5.45466843e-004 0. -1.76032609e-006
      -5.88261230e-007 4.42357676e-004 3.75040487e-004 5.30209683e-004
      1.52520242e-003 0. 1.80933427e-003 0. -5.91517783e-005
      -1.97676745e-005 3.75040487e-004 1.18592801e-003 8.71027878e-004
      1.96383358e-003 0. 1.16467394e-003 0. 1.55170972e-004
      5.18555607e-005 1.18592801e-003 2.31002737e-003 1.54434703e-003
      2.60575581e-003 0. 2.17106449e-003 0. 9.43445484e-004
      7.66993733e-004 2.31002737e-003 5.00346301e-004 4.26791899e-004
      7.06029416e-004 0. 4.22182813e-004 0. -5.28439530e-004
      -1.76595247e-004 5.00346301e-004 1.19784374e-004 4.91424056e-004
      6.82032085e-004 0. -2.74890917e-004 0. -1.61011331e-003
      -1.25759910e-003 1.19784374e-004 1.19385321e-003 6.86359883e-004
      1.74878992e-003 0. 1.15413265e-003 0. -6.68639143e-004
      -2.23447787e-004 1.19385321e-003 1.19710108e-003 1.27026730e-003
      2.52610096e-003 0. 1.50810403e-003 0. -1.55713398e-003
      -7.30499858e-004 1.19710108e-003 2.76411185e-004 4.82694537e-004
      1.44440331e-003 0. 1.22829247e-003 0. 2.70489021e-004
      9.03925829e-005 2.76411185e-004 -3.18457343e-004 -3.64351959e-004
      -1.09027931e-003 0. -4.18915041e-003 0. -3.19725019e-003
      -2.26517278e-003 -3.18457343e-004 2.38266331e-003 1.53569074e-003
      2.97757890e-003 0. 3.02769616e-003 0. 2.13091844e-003
      1.14276318e-003 2.38266331e-003 -1.05921447e-003 1.77238043e-003
      2.03113840e-003 0. 5.76330873e-004 0. -3.04137706e-003
      -3.38425254e-003 -1.05921447e-003 1.98431153e-005 1.13848061e-003
      9.84358834e-004 0. 1.16663077e-003 0. -8.71726137e-004
      -4.87014360e-004 1.98431153e-005 -1.36644859e-003 4.22862475e-004
      5.41763555e-004 0. 1.00370089e-003 0. -1.23771664e-003
      -4.13624104e-004 -1.36644859e-003 -1.44773890e-004 3.50641756e-004
      1.04925234e-003 0. 2.34370746e-004 0. -8.03698553e-004
      -2.68582313e-004 -1.44773890e-004 -4.51302854e-004
      -1.77708469e-004 -5.31770173e-004 0. -4.81957046e-004 0.
      -4.12894296e-004 -1.37982221e-004 -4.51302854e-004 1.51696289e-003
      2.29692296e-003 3.13987560e-003 0. -2.26506009e-003 0.
      -2.04537273e-003 -8.91494681e-004 1.51696289e-003 -2.41615670e-003
      2.22260162e-004 5.20627247e-004 0. 5.58677893e-005 0.
      -1.55251310e-003 -5.34675142e-004 -2.41615670e-003
      -2.70276377e-003 4.50094405e-004 3.96841788e-004 0.
      1.18487189e-003 0. -1.07720529e-003 -9.87893785e-004
      -2.70276377e-003 -2.93994485e-003 9.11495317e-006 -7.70184561e-004
      0. -1.33954221e-003 0. -3.71335214e-003 -2.07939441e-003
      -2.93994485e-003 -1.96039700e-003 1.06938498e-003 1.38725201e-003
      0. 1.44512916e-003 0. 6.49572030e-005 5.50354198e-005
      -1.96039700e-003 -1.80310523e-003 -4.90600301e-004
      -1.33934477e-003 0. -1.15915225e-003 0. -1.44015125e-003
      -4.81273950e-004 -1.80310523e-003 -3.78695695e-004
      -1.85371304e-004 -5.54700324e-004 0. -5.77810046e-004 0.
      -3.62455787e-004 -1.21126504e-004 -3.78695695e-004
      -2.72603793e-005 -5.87055110e-005 -1.75669265e-004 0.
      -1.78648959e-004 0. -6.92553294e-005 -2.31439244e-005
      -2.72603793e-005 -2.15324643e-003 4.88707679e-004 2.48391792e-004
      0. 4.68615093e-004 0. -3.83452607e-005 1.56054175e-005
      -2.15324643e-003 -2.16103904e-003 -2.88253825e-004
      -8.62563844e-004 0. 1.03720165e-004 0. -5.97006234e-004
      -1.99509333e-004 -2.16103904e-003 -2.05489341e-003
      -1.53720044e-004 -1.46959559e-003 0. -8.54842307e-004 0.
      -2.78045842e-003 -9.29181871e-004 -2.05489341e-003
      -3.08249961e-003 -1.32377376e-003 -3.81035986e-003 0.
      -1.56201411e-003 0. -1.12450519e-003 -3.75790667e-004
      -3.08249961e-003 -1.70086871e-003 -4.04474995e-004
      -1.21034251e-003 0. -8.46125185e-004 0. -6.46284956e-004
      -2.15977459e-004 -1.70086871e-003 -1.63217785e-003
      -2.38063768e-003 -3.47215217e-003 0. -2.83187046e-003 0.
      -4.35959344e-004 -1.45690254e-004 -1.63217785e-003 0.
      -1.65811143e-004 -4.96168621e-004 0. -6.63056620e-004 0.
      -1.67148337e-005 -5.58581678e-006 0. -5.22139540e-004
      -1.26000622e-003 -3.50482645e-003 0. -3.41451773e-003 0.
      -6.58270787e-004 -2.19982860e-004 -5.22139540e-004 4.00174076e-006
      3.59041934e-007 1.07438632e-006 0. 4.36813389e-005 0.
      5.99489658e-006 2.00339423e-006 4.00174076e-006 -3.45394335e-004
      -3.85666091e-004 -5.63489913e-004 0. -1.11919036e-003 0.
      -8.35949089e-004 -2.79360218e-004 -3.45394335e-004 2.66782735e-007
      0. 0. 0. -1.17176714e-005 0. 0. 0. 2.66782735e-007
      -6.97262919e-007 5.53509919e-004 -1.74305140e-004 0.
      3.95541638e-003 0. -2.58419826e-003 -1.52884179e-003
      -6.97262919e-007 9.27218571e-005 8.23526989e-006 2.46429699e-005
      0. 3.58818797e-004 0. 0. 0. 9.27218571e-005 1.91043620e-003
      2.27631303e-003 1.50196976e-003 0. 9.28120688e-003 0.
      -9.92667512e-004 -9.81217367e-004 1.91043620e-003 4.16843483e-004
      2.22372095e-004 6.65420492e-004 0. 1.12506794e-003 0.
      1.22351863e-004 4.08878441e-005 4.16843483e-004 5.96717640e-004
      5.00457827e-004 1.49755599e-003 0. 1.07367616e-003 0.
      1.50457607e-004 5.02804141e-005 5.96717640e-004 -5.66269955e-005
      -2.11144543e-005 -6.31820585e-005 0. -3.95876617e-004 0.
      -6.17415702e-004 -2.06329743e-004 -5.66269955e-005
      -4.74260305e-004 8.51711156e-005 2.54863990e-004 0.
      -5.62034489e-004 0. -1.45350548e-003 -7.33410649e-004
      -4.74260305e-004 4.09219967e-004 9.11805546e-004 2.47911015e-003
      0. 1.03888765e-003 0. -1.48200046e-003 -4.95259359e-004
      4.09219967e-004 1.09036593e-003 1.98440230e-003 3.36446939e-003 0.
      2.23488966e-003 0. -1.08738884e-003 -1.52185105e-003
      1.09036593e-003 1.35792815e-003 1.66977895e-003 3.25515075e-003 0.
      2.95018172e-003 0. 4.38972464e-004 1.23676582e-004 1.35792815e-003
      3.70066497e-003 3.57559370e-003 4.13864525e-003 0. 3.76574788e-003
      0. 2.27865763e-003 3.92765476e-004 3.70066497e-003 3.20714724e-004
      2.36269509e-004 7.07006315e-004 0. 5.25482581e-004 0.
      9.07767389e-005 3.03360630e-005 3.20714724e-004 9.84801329e-004
      8.89242452e-004 2.66094576e-003 0. 2.18848605e-003 0.
      2.80069769e-004 9.35945500e-005 9.84801329e-004 -1.72286367e-004
      4.32944915e-004 1.29553454e-003 0. -3.30780931e-005 0.
      -8.18121363e-004 -2.73402082e-004 -1.72286367e-004
      -6.45047985e-004 -5.57321400e-005 -1.66770653e-004 0.
      -2.44780822e-004 0. -3.65676999e-004 -1.22203026e-004
      -6.45047985e-004 7.35645532e-004 1.00800232e-003 2.11202190e-003
      0. 1.57423934e-003 0. -6.85258303e-004 -7.07704341e-004
      7.35645532e-004 -3.31272167e-004 -6.67970104e-004 -1.04175881e-003
      0. -1.54782145e-003 0. -9.49513400e-004 -6.11313502e-004
      -3.31272167e-004 3.65472981e-003 2.73911702e-003 3.48769268e-003
      0. 2.58001569e-003 0. 1.24793372e-003 2.24498726e-004
      3.65472981e-003 2.99094478e-003 1.88937492e-003 2.08205357e-003 0.
      1.29534758e-003 0. 3.37326870e-004 1.12728456e-004 2.99094478e-003
      1.46180682e-003 1.08719652e-003 3.21460841e-003 0. 1.61764259e-003
      0. 1.36912029e-004 4.57536298e-005 1.46180682e-003 2.38668313e-003
      1.47622160e-003 4.01780289e-003 0. 6.59659156e-004 0.
      2.22873219e-004 7.44803110e-005 2.38668313e-003 -7.92143925e-004
      -3.30115377e-004 -9.87828942e-004 0. -7.31272681e-004 0.
      -5.82625275e-004 -1.94703374e-004 -7.92143925e-004
      -4.08143178e-003 -1.30037457e-004 -3.89121618e-004 0.
      -3.71399685e-004 0. -1.53356988e-004 -5.12492297e-005
      -4.08143178e-003 3.26134468e-004 -8.28734657e-004 -8.97453341e-004
      0. -1.29599299e-003 0. -7.61812495e-004 -3.76673881e-004
      3.26134468e-004 1.35089125e-004 -3.43663996e-004 -1.02837093e-003
      0. -9.45360807e-004 0. 3.60786915e-004 1.20568657e-004
      1.35089125e-004 4.45426861e-003 2.87083583e-003 2.65614991e-003 0.
      2.04542605e-003 0. 2.02284055e-003 7.00278208e-004 4.45426861e-003
      2.83969007e-003 -7.42288597e-004 8.91280710e-004 0.
      7.31699231e-007 0. 1.17099739e-003 3.98441509e-004 2.83969007e-003
      3.45122023e-003 2.13471311e-003 5.32536069e-003 0. 1.00989873e-003
      0. 6.09891838e-004 2.03815143e-004 3.45122023e-003 2.47005094e-003
      -5.65130671e-004 -3.48548475e-003 0. -1.16092677e-003 0.
      2.60075263e-004 8.69125943e-005 2.47005094e-003 -3.20759609e-005
      -4.75925153e-005 -1.42414516e-004 0. -1.87415993e-004 0.
      -3.29965337e-006 -1.10268752e-006 -3.20759609e-005
      -2.09191261e-004 -5.30857185e-004 -1.58852339e-003 0.
      -1.49498263e-003 0. -1.02351834e-004 -3.42042185e-005
      -2.09191261e-004 -9.25414406e-006 -8.72717879e-004
      -2.61149742e-003 0. -1.35247095e-003 0. -1.67023361e-004
      -5.58164174e-005 -9.25414406e-006 -2.55302759e-003
      -3.54837324e-003 -5.19740628e-003 0. -5.40054636e-003 0.
      -2.89090746e-003 -1.40229391e-003 -2.55302759e-003 2.19846680e-003
      -1.18226942e-003 -8.75665690e-004 0. 9.97918425e-004 0.
      1.48889012e-006 7.51911866e-005 2.19846680e-003 3.57903264e-005
      -1.83321105e-003 -3.74710350e-003 0. -5.11569250e-003 0.
      -2.68278457e-003 -1.80188834e-003 3.57903264e-005 2.29750387e-003
      7.46395555e-004 8.52001715e-004 0. 2.90982425e-003 0.
      8.99984661e-005 3.00758657e-005 2.29750387e-003 1.72718312e-003
      2.04480573e-004 1.16815325e-004 0. -1.61639589e-003 0.
      -1.02030078e-003 -3.40967090e-004 1.72718312e-003 1.53536705e-004
      2.37658696e-005 7.11162720e-005 0. 3.86211119e-004 0. 0. 0.
      1.53536705e-004 3.47635156e-004 4.60778509e-004 1.37882121e-003 0.
      8.08157027e-003 0. -3.11494037e-003 -1.82306161e-003
      3.47635156e-004 1.36051956e-003 1.93167804e-003 2.51588412e-003 0.
      2.51588412e-003 0. 7.35801470e-004 2.45891919e-004 1.36051956e-003
      1.82689133e-003 1.65309326e-003 2.51588412e-003 0. 2.58540129e-003
      0. 4.29827895e-004 1.43641257e-004 1.82689133e-003 2.80694396e-004
      7.66270445e-004 2.08684010e-003 0. 1.33427198e-003 0.
      4.90534258e-005 1.63927962e-005 2.80694396e-004 5.00973838e-004
      1.31154331e-004 3.92463087e-004 0. 5.12718863e-004 0.
      4.07877669e-005 1.36305871e-005 5.00973838e-004 0. 0. 0. 0. 0. 0.
      0. 0. 0. 0. 0. 0. 0. 0. 0. 0. 0. 0. 3.94617760e-004
      4.56839654e-004 1.36703462e-003 0. 7.60343450e-004 0.
      -4.03602986e-004 -1.34877351e-004 3.94617760e-004 4.84631979e-004
      7.79840047e-004 2.18111416e-003 0. -1.53479952e-004 0.
      -6.78068900e-004 -1.09159795e-003 4.84631979e-004 2.14843685e-003
      1.30541855e-003 2.49269139e-003 0. 2.48912233e-003 0.
      7.72168278e-004 2.58045678e-004 2.14843685e-003 3.06306570e-003
      3.87354172e-003 4.84046759e-003 0. 3.66028724e-003 0.
      1.51231547e-003 5.05390344e-004 3.06306570e-003 4.93432221e-004
      1.37362687e-004 4.11040412e-004 0. 6.84038387e-004 0.
      2.69561016e-004 9.00827799e-005 4.93432221e-004 3.52619379e-003
      1.13056251e-003 3.03933979e-003 0. 3.39284190e-003 0.
      2.72194506e-003 9.09628579e-004 3.52619379e-003 1.33483832e-006
      1.33057699e-006 3.98157817e-006 0. 1.17274531e-005 0.
      8.26165069e-006 2.76090509e-006 1.33483832e-006 2.55593786e-005
      -7.64031021e-004 -1.39701727e-003 0. -1.15940487e-003 0.
      4.63371907e-005 1.54851168e-005 2.55593786e-005 6.19990387e-005
      3.51930619e-004 1.05310697e-003 0. -1.35500784e-004 0.
      -9.72428650e-004 -5.46745490e-004 6.19990387e-005 1.03950349e-003
      5.54567378e-004 1.65947282e-003 0. -2.00955707e-004 0.
      -1.50497130e-004 -5.02935327e-005 1.03950349e-003 2.81648873e-003
      2.20845733e-003 4.21882048e-003 0. 2.30325246e-003 0.
      7.48855004e-004 2.50254525e-004 2.81648873e-003 3.94104142e-003
      3.38709913e-003 4.30656085e-003 0. 2.03199754e-003 0.
      1.14143640e-003 3.81448306e-004 3.94104142e-003 1.68277905e-003
      7.73056061e-004 2.17839517e-003 0. 3.49152880e-003 0.
      1.17611629e-003 3.93038266e-004 1.68277905e-003 1.67363870e-003
      -1.08462482e-004 7.59765506e-004 0. 2.30786530e-003 0.
      2.10545771e-003 7.03935162e-004 1.67363870e-003 2.56116782e-005
      -1.22073361e-005 -3.65286214e-005 0. 8.76492762e-004 0.
      3.13234159e-005 1.04677565e-005 2.56116782e-005 1.80957883e-004
      -1.21016160e-003 -1.20295037e-003 0. -3.77274910e-003 0.
      1.53266825e-004 5.12191473e-005 1.80957883e-004 1.42939773e-003
      8.99104809e-004 2.69046007e-003 0. 8.84018431e-004 0.
      4.41785756e-004 1.47637053e-004 1.42939773e-003 9.58233839e-004
      -1.21762183e-004 -3.64357809e-004 0. -6.33131131e-004 0.
      1.61034026e-004 5.38147506e-005 9.58233839e-004 4.10067756e-003
      3.56239313e-003 4.05977154e-003 0. 2.26524752e-003 0.
      1.94134016e-003 6.48762099e-004 4.10067756e-003 2.45786645e-003
      -9.62464255e-005 -1.44304737e-004 0. -2.40237522e-003 0.
      2.02096096e-004 6.75368356e-005 2.45786645e-003 1.35615794e-003
      3.90842499e-004 1.37450057e-003 0. 2.62349332e-003 0.
      2.59442441e-003 1.05283153e-003 1.35615794e-003 -1.38495932e-003
      -1.59324810e-003 -2.24402244e-003 0. -3.26467096e-003 0.
      -1.49106712e-003 -5.41504414e-004 -1.38495932e-003 7.61827323e-005
      -4.04827326e-004 -1.21139316e-003 0. 1.64577633e-003 0.
      2.11082210e-004 7.05400307e-005 7.61827323e-005 -3.02401721e-003
      -3.05769825e-003 -3.51770455e-003 0. -3.33726685e-003 0.
      -3.19423666e-003 -1.55044184e-003 -3.02401721e-003 1.58107351e-003
      -7.15517090e-004 -1.27347838e-003 0. 8.12934886e-004 0.
      1.74861896e-004 6.05943496e-005 1.58107351e-003 1.39126705e-003
      -1.36994116e-004 -4.09937871e-004 0. -1.13811844e-003 0.
      -4.77142865e-004 -1.59453033e-004 1.39126705e-003 2.40989588e-003
      -7.23680132e-004 -1.40002475e-003 0. -2.95881735e-004 0.
      -7.58699898e-005 -2.53544840e-005 2.40989588e-003 7.61489267e-004
      -6.50423171e-004 -8.26133008e-004 0. -2.94722756e-003 0.
      -1.71713892e-003 -5.79762273e-004 7.61489267e-004 -3.46907967e-004
      -1.27464952e-003 -3.18774977e-003 0. -1.05074071e-003 0.
      -1.31327275e-003 -4.38873481e-004 -3.46907967e-004
      -1.86885067e-003 -1.75640814e-003 -2.92800250e-003 0.
      -2.95633730e-003 0. -2.94059515e-003 -1.44648296e-003
      -1.86885067e-003 -5.64563961e-004 -4.59050178e-004
      -1.37364981e-003 0. -8.76292121e-004 0. -9.52445378e-004
      -3.18290869e-004 -5.64563961e-004 -4.87136625e-004
      -5.88843599e-004 -1.76204205e-003 0. -1.48134178e-003 0.
      -1.02176424e-003 -3.41456034e-004 -4.87136625e-004 0.
      2.14473438e-003 3.59453633e-003 0. 1.52424342e-004 0. 0. 0. 0. 0.
      0. 0. 0. 0. 0. 0. 0. 0. -3.93843084e-006 0. 0. 0. 0. 0. 0. 0.
      -3.93843084e-006 -2.03789634e-004 0. 0. 0. 0. 0. 0. 0.
      -2.03789634e-004 -1.07667560e-003 -1.16707408e-004
      -3.49231734e-004 0. -9.91698471e-004 0. -3.54438962e-004
      -1.18447584e-004 -1.07667560e-003 -3.51998117e-003
      -6.05422363e-004 -1.81164755e-003 0. -2.22755456e-003 0.
      -2.60756281e-003 -1.96787226e-003 -3.51998117e-003 4.70735366e-004
      -1.03758226e-004 -3.10482981e-004 0. -4.81134077e-004 0.
      -6.64790336e-004 -2.22161820e-004 4.70735366e-004 1.15817494e-003
      4.88408608e-004 1.39701355e-003 0. -1.14016351e-003 0.
      -2.23130756e-003 -9.78709431e-004 1.15817494e-003 2.07991689e-005
      9.89948148e-006 2.96229118e-005 0. 4.11255402e-004 0.
      1.45001730e-004 4.84571574e-005 2.07991689e-005 2.94935936e-003
      2.33110331e-004 4.88036021e-004 0. 3.33687291e-003 0.
      3.01257521e-003 1.35657087e-003 2.94935936e-003 -9.92946443e-005
      1.31821730e-006 3.94459403e-006 0. 4.51453961e-005 0.
      1.88559079e-005 6.30132945e-006 -9.92946443e-005 -2.47600237e-005
      7.21644959e-004 8.03877483e-004 0. 1.16920064e-003 0.
      6.47791428e-004 2.16480956e-004 -2.47600237e-005 -3.14306840e-003
      -1.86362406e-004 -5.57665247e-004 0. -1.58772536e-003 0.
      -2.33964599e-003 -9.20550199e-004 -3.14306840e-003
      -1.71614415e-003 -1.35141879e-003 -3.67277942e-004 0.
      -1.73068454e-003 0. -9.01488937e-004 -5.48426353e-004
      -1.71614415e-003 2.49318167e-004 8.71522236e-004 2.60791718e-003
      0. 1.01628003e-003 0. -1.21901766e-003 -4.68162412e-004
      2.49318167e-004 -6.35035220e-004 -9.75633156e-004 -2.08863500e-003
      0. -2.37611239e-003 0. -2.59700837e-003 -9.12171090e-004
      -6.35035220e-004 2.13724197e-004 1.64751211e-004 4.92997351e-004
      0. 2.14974745e-003 0. 1.48066465e-004 4.94813285e-005
      2.13724197e-004 4.23197111e-004 6.67441287e-004 1.71692693e-003 0.
      4.47741710e-003 0. 3.35171149e-004 1.12008507e-004 4.23197111e-004
      3.30867246e-004 5.18913614e-004 9.01679916e-004 0. 3.63755296e-003
      0. 4.55242902e-004 1.52134453e-004 3.30867246e-004 1.82916387e-003
      1.21283985e-003 2.88346759e-003 0. 3.30242934e-003 0.
      1.81104289e-003 6.05219626e-004 1.82916387e-003 -1.33954233e-003
      -6.96943898e-004 -1.19830853e-004 0. 4.84304939e-004 0.
      -9.38005513e-004 -5.37224871e-004 -1.33954233e-003
      -8.62733927e-004 -1.72804820e-003 -3.13264714e-003 0.
      -5.46433788e-004 0. -1.15087850e-003 -4.77271882e-004
      -8.62733927e-004 -1.55706389e-003 -1.86739126e-004
      -5.58794185e-004 0. -8.50206823e-004 0. -1.99613278e-003
      -6.67073182e-004 -1.55706389e-003 -1.92647148e-003
      -1.07127707e-003 -2.30945880e-003 0. -1.58212753e-003 0.
      -8.97588674e-004 -2.99959007e-004 -1.92647148e-003 3.08701885e-004
      8.29169876e-004 1.85276056e-003 0. 4.95641865e-003 0.
      3.93885450e-004 1.31629771e-004 3.08701885e-004 -1.38152522e-004
      -1.56289359e-004 -4.67675884e-004 0. 5.03421761e-004 0.
      -1.06764790e-004 -3.56789460e-005 -1.38152522e-004 1.71128218e-003
      5.66548726e-004 2.34138267e-003 0. 3.23707913e-003 0.
      1.86216296e-003 6.22302992e-004 1.71128218e-003 -1.59854942e-003
      -1.72657729e-003 -2.61034118e-003 0. -2.45495373e-003 0.
      -1.41790521e-003 -4.73839842e-004 -1.59854942e-003
      -6.88581320e-004 -1.43435539e-003 -2.94478773e-003 0.
      -1.06606807e-003 0. -3.26389942e-004 -1.09073895e-004
      -6.88581320e-004 -2.75440468e-003 -1.79543125e-003
      -2.71940534e-003 0. -2.07177550e-003 0. -7.40213785e-004
      -2.47366756e-004 -2.75440468e-003 -5.62481175e-004
      -4.21391625e-004 -1.26096222e-003 0. 5.09605277e-004 0.
      3.76430457e-004 1.25796199e-004 -5.62481175e-004 -1.54674635e-003
      -2.52951926e-004 -7.56927591e-004 0. -3.06290662e-004 0.
      -5.94184734e-004 -1.98566297e-004 -1.54674635e-003
      -1.94226755e-004 -2.58015515e-003 -4.08509327e-003 0.
      2.43463716e-003 0. -3.22386215e-004 -1.07735934e-004
      -1.94226755e-004 -2.31173937e-004 -3.11601325e-004
      -9.32428637e-004 0. -7.03575322e-004 0. -5.38812892e-004
      -1.80062023e-004 -2.31173937e-004 -2.14118348e-003
      -1.56079873e-003 -3.84257571e-003 0. -6.50981616e-004 0.
      -2.10671057e-003 -8.00218142e-004 -2.14118348e-003
      -1.85535348e-003 -4.99252754e-004 -1.49395352e-003 0.
      -1.92273280e-003 0. -2.21821549e-003 -8.14738567e-004
      -1.85535348e-003 -2.34645768e-003 -7.09301210e-004
      -2.12249625e-003 0. -9.65763698e-004 0. -7.54006265e-004
      -2.51976016e-004 -2.34645768e-003 -2.34645768e-003
      -4.59901057e-004 -1.37619709e-003 0. -1.80045643e-003 0.
      -2.30097771e-003 -7.69454171e-004 -2.34645768e-003
      -1.11098378e-003 -2.44908530e-004 -7.32858200e-004 0.
      2.24086945e-003 0. -4.59469593e-004 -1.53546818e-004
      -1.11098378e-003 -6.03197142e-004 -4.51593223e-004
      -1.35133706e-003 0. -4.85985394e-004 0. -6.59911428e-004
      -2.20531030e-004 -6.03197142e-004 1.53536705e-004 2.37658696e-005
      7.11162720e-005 0. 3.86211119e-004 0. 0. 0. 1.53536705e-004
      5.58902335e-004 4.60778509e-004 1.37882121e-003 0. 8.47235497e-004
      0. 1.72364715e-004 5.76014136e-005 5.58902335e-004 1.36051956e-003
      1.93167804e-003 2.51588412e-003 0. 2.51588412e-003 0.
      7.35801470e-004 2.45891919e-004 1.36051956e-003 1.97792146e-003
      1.65309326e-003 2.51588412e-003 0. 2.51588412e-003 0.
      9.77921765e-004 3.26805079e-004 1.97792146e-003 2.80694396e-004
      7.66270445e-004 2.08684010e-003 0. 1.33427198e-003 0.
      4.90534258e-005 1.63927962e-005 2.80694396e-004 5.00973838e-004
      1.31154331e-004 3.92463087e-004 0. 5.12718863e-004 0.
      4.07877669e-005 1.36305871e-005 5.00973838e-004 0. 0. 0. 0. 0. 0.
      0. 0. 0. 0. 0. 0. 0. 0. 0. 0. 0. 0. 4.77045716e-004
      4.39923897e-004 1.31641643e-003 0. 8.18447734e-004 0.
      1.15292336e-004 3.85287531e-005 4.77045716e-004 7.29516556e-004
      8.11136677e-004 2.27476773e-003 0. 1.38894678e-003 0.
      1.86279489e-004 6.22513762e-005 7.29516556e-004 2.17714813e-003
      1.24194776e-003 2.30276375e-003 0. 2.20306637e-003 0.
      6.33703254e-004 2.11772960e-004 2.17714813e-003 2.30276375e-003
      1.52508810e-003 2.30276375e-003 0. 2.00925837e-003 0.
      4.36463277e-004 1.45858459e-004 2.30276375e-003 4.28267202e-004
      8.00158741e-005 2.39437621e-004 0. 1.94502107e-004 0.
      2.53020062e-005 8.45550767e-006 4.28267202e-004 6.15440309e-004
      1.07438653e-004 3.21496918e-004 0. 7.58090639e-004 0.
      5.83892415e-006 1.95127109e-006 6.15440309e-004 0. 0. 0. 0. 0. 0.
      0. 0. 0. 0. 1.10175373e-004 3.29685601e-004 0. 5.41509129e-004 0.
      0. 0. 0. 4.14785958e-004 4.35974303e-004 1.30459899e-003 0.
      5.29871031e-004 0. 1.00063233e-004 3.34394063e-005 4.14785958e-004
      6.71112328e-004 1.77168826e-004 5.30155434e-004 0. 7.65998630e-005
      0. 1.14790873e-005 3.83611359e-006 6.71112328e-004 2.32571969e-003
      8.95902107e-004 2.16229353e-003 0. 6.89119392e-004 0.
      1.66121376e-004 5.55148472e-005 2.32571969e-003 2.28346582e-003
      1.86515186e-004 4.82438976e-004 0. -7.36418180e-004 0. 0. 0.
      2.28346582e-003 3.64461157e-004 1.90507461e-004 5.70070173e-004 0.
      3.28428607e-004 0. -1.30102679e-004 -4.34781396e-005
      3.64461157e-004 2.21612136e-004 -3.63921194e-004 8.74275938e-005
      0. 4.82438976e-004 0. -1.30105927e-003 -4.34791844e-004
      2.21612136e-004 1.01120177e-005 1.30782428e-004 3.91349895e-004 0.
      5.97215258e-004 0. -7.75067674e-005 -2.59014669e-005
      1.01120177e-005 9.84665676e-005 3.73625982e-004 1.11802947e-003 0.
      -4.06924915e-003 0. -1.72604085e-003 -5.76813472e-004
      9.84665676e-005 6.58758800e-004 1.15685863e-004 3.46175366e-004 0.
      -4.24979453e-006 0. 0. 0. 6.58758800e-004 7.71092367e-004
      1.69146268e-004 5.06149023e-004 0. -3.48511603e-005 0. 0. 0.
      7.71092367e-004 2.18473864e-003 4.22141340e-004 8.58722779e-004 0.
      -4.27934865e-004 0. 0. 0. 2.18473864e-003 1.66060671e-003
      8.07785254e-004 1.21063043e-004 0. -1.61758030e-003 0.
      -1.72864384e-004 -5.77683932e-005 1.66060671e-003 -5.29182144e-005
      1.97670859e-004 7.51802872e-004 0. 3.90399131e-004 0.
      -7.54927634e-004 -2.52283935e-004 -5.29182144e-005
      -2.87019624e-003 -4.39967378e-004 -5.82471548e-004 0.
      -2.68651359e-003 0. -2.46844091e-003 -8.68125935e-004
      -2.87019624e-003 -9.74121067e-005 -1.40605305e-004
      -4.20741824e-004 0. -6.97801646e-004 0. -1.22302992e-003
      -4.08715627e-004 -9.74121067e-005 -3.68186622e-003
      -2.93786684e-003 -3.15912371e-003 0. -3.16411885e-003 0.
      -3.85488453e-003 -1.77121896e-003 -3.68186622e-003 1.42102654e-003
      3.74579220e-004 1.12088094e-003 0. -1.22425326e-005 0.
      -2.37851709e-005 -7.94860716e-006 1.42102654e-003 1.35803293e-003
      1.59265270e-004 4.76582441e-004 0. -4.07048705e-004 0.
      -4.77142865e-004 -1.59453033e-004 1.35803293e-003 1.46150426e-003
      1.71147357e-003 2.61342968e-004 0. -1.76911382e-003 0.
      -1.47579223e-004 -4.93184525e-005 1.46150426e-003 -1.93498694e-004
      -6.38500962e-004 -7.90456077e-004 0. -3.92224453e-003 0.
      -2.09353375e-003 -7.05547107e-004 -1.93498694e-004
      -1.73820846e-003 -1.38557283e-004 -4.14611917e-004 0.
      -1.93710753e-003 0. -2.11348222e-003 -7.06289837e-004
      -1.73820846e-003 -4.01224568e-003 -2.35467381e-003
      -4.20545740e-003 0. -4.20048041e-003 0. -5.48234582e-003
      -2.61841016e-003 -4.01224568e-003 -1.67352159e-003
      -4.24159953e-004 -1.26924494e-003 0. -1.05920492e-003 0.
      -1.45708071e-003 -4.86931385e-004 -1.67352159e-003
      -1.72726507e-003 -7.35886744e-004 -2.20204983e-003 0.
      -2.50432664e-003 0. -2.54547852e-003 -8.50655546e-004
      -1.72726507e-003 0. 2.14473438e-003 3.59453633e-003 0.
      1.52424342e-004 0. 0. 0. 0. 0. 0. 0. 0. 0. 0. 0. 0. 0.
      -3.93843084e-006 0. 0. 0. 0. 0. 0. 0. -3.93843084e-006
      -2.03789634e-004 0. 0. 0. 0. 0. 0. 0. -2.03789634e-004
      -1.07667560e-003 -1.16707408e-004 -3.49231734e-004 0.
      -9.91698471e-004 0. -3.54438962e-004 -1.18447584e-004
      -1.07667560e-003 -3.51998117e-003 -6.05422363e-004
      -1.81164755e-003 0. -2.22755456e-003 0. -2.60756281e-003
      -1.96787226e-003 -3.51998117e-003 -1.36396883e-003
      -1.03758226e-004 -3.10482981e-004 0. -4.81134077e-004 0.
      -6.64790336e-004 -2.22161820e-004 -1.36396883e-003
      -6.13765587e-005 4.79081995e-004 1.43359043e-003 0.
      7.31117441e-004 0. -2.23130756e-003 -9.78709431e-004
      -6.13765587e-005 0. 0. 0. 0. 0. 0. 0. 0. 0. 0. 6.78269207e-005
      2.02963231e-004 0. 4.81517112e-004 0. 0. 0. 0. -1.03988605e-004 0.
      0. 0. 2.73277274e-005 0. 0. 0. -1.03988605e-004 -1.02140490e-004
      1.01971463e-003 1.69581268e-003 0. 1.69581268e-003 0.
      5.54235827e-004 1.85216253e-004 -1.02140490e-004 -3.14939674e-003
      -1.53997054e-004 -4.60816169e-004 0. -1.47915212e-003 0.
      -2.33964599e-003 -9.20550199e-004 -3.14939674e-003
      -2.26716930e-003 4.32997884e-004 1.29569264e-003 0.
      1.39178114e-003 0. -9.01488937e-004 -5.48426353e-004
      -2.26716930e-003 -3.89530796e-005 4.70321160e-004 1.40737486e-003
      0. 1.28038740e-003 0. -1.21901766e-003 -4.68162412e-004
      -3.89530796e-005 -2.31098523e-003 3.20391737e-005 9.58730670e-005
      0. 1.14305574e-003 0. -2.59700837e-003 -9.12171090e-004
      -2.31098523e-003 1.04663650e-005 1.04260645e-004 3.11986892e-004
      0. 3.81236401e-004 0. -1.72670378e-004 -5.77035535e-005
      1.04663650e-005 1.60872863e-004 4.65849007e-004 1.11368694e-003 0.
      2.24706484e-004 0. -2.03887373e-003 -9.78700817e-004
      1.60872863e-004 1.24177546e-004 8.92351731e-004 1.64788996e-003 0.
      2.29798141e-003 0. 1.76195215e-004 5.88814037e-005 1.24177546e-004
      7.46219768e-004 1.72124652e-003 2.36578612e-003 0. 2.41695088e-004
      0. -1.96210621e-003 -2.01321929e-003 7.46219768e-004
      -1.74420769e-003 2.77945714e-004 8.31718731e-004 0.
      1.44089921e-003 0. -1.02257833e-003 -5.65487717e-004
      -1.74420769e-003 -1.54558546e-003 -1.77963031e-003
      -2.60278815e-003 0. -7.40395277e-004 0. -1.64236000e-003
      -6.41516701e-004 -1.54558546e-003 -2.60819192e-003
      -2.89779618e-005 -8.67127746e-005 0. -3.95059360e-005 0.
      -2.09084363e-003 -6.98723947e-004 -2.60819192e-003
      -2.82374257e-003 -8.26285628e-004 -1.57635205e-003 0.
      -1.45486032e-003 0. -1.45042618e-003 -4.84707678e-004
      -2.82374257e-003 8.68211573e-005 1.47875003e-003 2.94100074e-003
      0. 2.17429036e-003 0. -1.07028964e-003 -3.57672398e-004
      8.68211573e-005 -8.88725626e-004 1.19578697e-004 3.57825425e-004
      0. 8.30164296e-004 0. -5.84888738e-004 -1.95459768e-004
      -8.88725626e-004 3.06738366e-004 1.65193237e-003 1.63822074e-003
      0. 1.47296686e-003 0. -1.67780113e-003 -1.45779748e-003
      3.06738366e-004 -3.27635044e-003 -1.51486334e-003 -1.97681272e-003
      0. -2.40455195e-003 0. -3.29261320e-003 -1.91742170e-003
      -3.27635044e-003 -1.33968343e-003 -1.65914884e-003
      -2.75440468e-003 0. -1.44623895e-003 0. -9.57109907e-004
      -3.19849787e-004 -1.33968343e-003 -3.63879767e-003
      -1.80712738e-003 -2.75440468e-003 0. -2.20668479e-003 0.
      -1.54645066e-003 -5.16797474e-004 -3.63879767e-003
      -1.23886275e-003 -3.30527138e-004 -9.89061198e-004 0.
      -6.12980104e-004 0. -5.68094314e-004 -1.89847444e-004
      -1.23886275e-003 -1.56868296e-003 -2.52951926e-004
      -7.56927591e-004 0. -3.66406806e-004 0. -6.03164139e-004
      -2.01567062e-004 -1.56868296e-003 -8.64584406e-004 1.96794936e-004
      5.88886789e-004 0. 2.19804235e-003 0. -5.44238370e-004
      -1.81875163e-004 -8.64584406e-004 -1.05391594e-003
      -6.88499946e-004 -2.06024945e-003 0. -2.05855537e-003 0.
      -2.28019943e-003 -1.28282164e-003 -1.05391594e-003
      -3.65810003e-003 -1.08702807e-003 -2.42487318e-003 0.
      3.26700450e-004 0. -3.50796268e-003 -1.35584048e-003
      -3.65810003e-003 -3.37226992e-003 -9.02496977e-004
      -2.48788018e-003 0. -3.75899952e-003 0. -4.35602199e-003
      -2.28152564e-003 -3.37226992e-003 -3.39468149e-003
      -7.14240654e-004 -2.13727704e-003 0. -9.67029715e-004 0.
      -1.24582823e-003 -4.16334631e-004 -3.39468149e-003
      -3.59116774e-003 -5.22255956e-004 -1.56278652e-003 0.
